{"learner":{"attributes":{"best_iteration":"282","best_ntree_limit":"283","scikit_learn":"{\"n_estimators\": 283, \"objective\": \"reg:squarederror\", \"max_depth\": 41, \"max_leaves\": null, \"max_bin\": null, \"grow_policy\": null, \"learning_rate\": 0.03228808659454094, \"verbosity\": null, \"booster\": null, \"tree_method\": null, \"gamma\": null, \"min_child_weight\": null, \"max_delta_step\": null, \"subsample\": 0.6706283484783022, \"sampling_method\": null, \"colsample_bytree\": 1.0, \"colsample_bylevel\": 0.14992900807916498, \"colsample_bynode\": null, \"reg_alpha\": 0.01, \"reg_lambda\": 0.012161666969936437, \"scale_pos_weight\": null, \"base_score\": null, \"missing\": NaN, \"num_parallel_tree\": null, \"random_state\": 42, \"n_jobs\": null, \"monotone_constraints\": null, \"interaction_constraints\": null, \"importance_type\": null, \"gpu_id\": null, \"validate_parameters\": null, \"predictor\": null, \"enable_categorical\": false, \"feature_types\": null, \"max_cat_to_onehot\": null, \"max_cat_threshold\": null, \"eval_metric\": null, \"early_stopping_rounds\": null, \"callbacks\": null, \"_estimator_type\": \"regressor\"}"},"feature_names":[],"feature_types":[],"gradient_booster":{"model":{"gbtree_model_param":{"num_parallel_tree":"1","num_trees":"283","size_leaf_vector":"0"},"tree_info":[0,0,0,0,0,0,0,0,0,0,0,0,0,0,0,0,0,0,0,0,0,0,0,0,0,0,0,0,0,0,0,0,0,0,0,0,0,0,0,0,0,0,0,0,0,0,0,0,0,0,0,0,0,0,0,0,0,0,0,0,0,0,0,0,0,0,0,0,0,0,0,0,0,0,0,0,0,0,0,0,0,0,0,0,0,0,0,0,0,0,0,0,0,0,0,0,0,0,0,0,0,0,0,0,0,0,0,0,0,0,0,0,0,0,0,0,0,0,0,0,0,0,0,0,0,0,0,0,0,0,0,0,0,0,0,0,0,0,0,0,0,0,0,0,0,0,0,0,0,0,0,0,0,0,0,0,0,0,0,0,0,0,0,0,0,0,0,0,0,0,0,0,0,0,0,0,0,0,0,0,0,0,0,0,0,0,0,0,0,0,0,0,0,0,0,0,0,0,0,0,0,0,0,0,0,0,0,0,0,0,0,0,0,0,0,0,0,0,0,0,0,0,0,0,0,0,0,0,0,0,0,0,0,0,0,0,0,0,0,0,0,0,0,0,0,0,0,0,0,0,0,0,0,0,0,0,0,0,0,0,0,0,0,0,0,0,0,0,0,0,0,0,0,0,0,0,0,0,0,0,0,0,0],"trees":[{"base_weights":[3.494718E3,3.4867798E3,3.5568638E3,3.483714E3,3.6775242E3,3.5417134E3,3.7613743E3,3.3775676E3,3.4906091E3,3.4167717E3,3.5801008E3,3.3155303E3,3.4406023E3,3.4880667E3,3.6684307E3,3.4629531E3,3.6493152E3],"categories":[],"categories_nodes":[],"categories_segments":[],"categories_sizes":[],"default_left":[1,1,0,0,0,0,0,0,1,0,0,0,0,0,0,0,0],"id":0,"left_children":[1,3,5,7,-1,9,-1,11,13,-1,15,-1,-1,-1,-1,-1,-1],"loss_changes":[2.43712E5,2.59072E5,1.16864E5,3.6864E5,0E0,2.5408E5,0E0,2.9408E4,1.41312E5,0E0,3.65312E5,0E0,0E0,0E0,0E0,0E0,0E0],"parents":[2147483647,0,0,1,1,2,2,3,3,5,5,7,7,8,8,10,10],"right_children":[2,4,6,8,-1,10,-1,12,14,-1,16,-1,-1,-1,-1,-1,-1],"split_conditions":[6.55E2,6.893E3,6.8955E3,4.783E3,1.1874022E2,4.737E3,1.2144757E2,4.2815E3,5.151E3,1.1032102E2,4.7375E3,1.07052124E2,1.1109046E2,1.1262299E2,1.184466E2,1.11812126E2,1.178294E2],"split_indices":[4,5,5,10,0,10,0,7,7,0,7,0,0,0,0,0,0],"split_type":[0,0,0,0,0,0,0,0,0,0,0,0,0,0,0,0,0],"sum_hessian":[8E2,7.1E2,9E1,6.99E2,1.1E1,8.4E1,6E0,4.3E1,6.56E2,2E1,6.4E1,2.2E1,2.1E1,6.47E2,9E0,2.4E1,4E1],"tree_param":{"num_deleted":"0","num_feature":"82","num_nodes":"17","size_leaf_vector":"0"}},{"base_weights":[3.381597E3,3.1613523E3,3.3873516E3,3.3745337E3,3.5120115E3,3.233618E3,3.3793157E3,3.4861543E3,3.7197178E3],"categories":[],"categories_nodes":[],"categories_segments":[],"categories_sizes":[],"default_left":[0,0,1,0,0,0,0,0,0],"id":1,"left_children":[1,-1,3,5,7,-1,-1,-1,-1],"loss_changes":[9.07264E5,0E0,1.128448E6,3.55328E5,2.39744E5,0E0,0E0,0E0,0E0],"parents":[2147483647,0,0,2,2,3,3,4,4],"right_children":[2,-1,4,6,8,-1,-1,-1,-1],"split_conditions":[4.5175E3,1.0207401E2,4.7855E3,4.3195E3,1.5915E3,1.0440733E2,1.0911163E2,1.1256125E2,1.2010257E2],"split_indices":[10,0,7,7,6,0,0,0,0],"split_type":[0,0,0,0,0,0,0,0,0],"sum_hessian":[8.18E2,2.1E1,7.97E2,7.23E2,7.4E1,2.4E1,6.99E2,6.6E1,8E0],"tree_param":{"num_deleted":"0","num_feature":"82","num_nodes":"9","size_leaf_vector":"0"}},{"base_weights":[3.2710347E3,3.2649111E3,3.3463174E3,3.2624124E3,3.4249143E3,3.2947732E3,3.3915627E3,3.1241047E3,3.2731057E3,2.9998591E3,3.4637231E3,3.1792869E3,3.339007E3,3.2342883E3,3.488761E3,3.2702122E3,3.585593E3,3.5089688E3,3.0872188E3],"categories":[],"categories_nodes":[],"categories_segments":[],"categories_sizes":[],"default_left":[1,1,0,0,0,0,0,0,1,0,0,0,0,0,0,0,0,0,0],"id":2,"left_children":[1,3,5,7,9,11,13,-1,15,-1,-1,-1,-1,-1,17,-1,-1,-1,-1],"loss_changes":[2.31424E5,1.56672E5,1.664E3,9.4208E5,5.5216E4,1.3952E4,3.368E5,0E0,4.61824E5,0E0,0E0,0E0,0E0,0E0,2.2464E4,0E0,0E0,0E0,0E0],"parents":[2147483647,0,0,1,1,2,2,3,3,4,4,5,5,6,6,8,8,14,14],"right_children":[2,4,6,8,10,12,14,-1,16,-1,-1,-1,-1,-1,18,-1,-1,-1,-1],"split_conditions":[4.35E1,6.8705E3,6.7985E3,4.546E3,4.3045E3,4.6105E3,4.618E3,1.0087136E2,6E0,9.685971E1,1.1183699E2,1.0265308E2,1.0781015E2,1.0442898E2,1.45E1,1.0558889E2,1.15771935E2,1.1329788E2,9.968038E1],"split_indices":[70,5,5,7,7,7,7,0,76,0,0,0,0,0,76,0,0,0,0],"split_type":[0,0,0,0,0,0,0,0,0,0,0,0,0,0,0,0,0,0,0],"sum_hessian":[7.91E2,7.32E2,5.9E1,7.21E2,1.1E1,2.8E1,3.1E1,5.2E1,6.69E2,1E0,1E1,8E0,2E1,1.2E1,1.9E1,6.63E2,6E0,1.8E1,1E0],"tree_param":{"num_deleted":"0","num_feature":"82","num_nodes":"19","size_leaf_vector":"0"}},{"base_weights":[3.156897E3,3.148996E3,3.254867E3,3.120024E3,3.154963E3,3.2444495E3,3.5355369E3,3.0404822E3,3.1715496E3,3.2169453E3,3.4389072E3,3.1637893E3,3.4455308E3,3.1407112E3,3.2648774E3,2.9858281E3,3.2044397E3,3.277567E3,2.8493777E3,2.9489802E3,3.2439868E3],"categories":[],"categories_nodes":[],"categories_segments":[],"categories_sizes":[],"default_left":[1,0,0,0,0,0,0,0,0,0,0,0,0,0,0,0,0,0,0,0,0],"id":3,"left_children":[1,3,5,7,-1,9,-1,-1,11,13,-1,-1,-1,15,17,-1,19,-1,-1,-1,-1],"loss_changes":[5.01248E5,9.728E3,3.5904E4,4.11392E5,0E0,1.75616E5,0E0,0E0,3.328E4,6.1632E4,0E0,0E0,0E0,8.112E4,4.9888E4,0E0,2.5136E4,0E0,0E0,0E0,0E0],"parents":[2147483647,0,0,1,1,2,2,3,3,5,5,8,8,9,9,13,13,14,14,16,16],"right_children":[2,4,6,8,-1,10,-1,-1,12,14,-1,-1,-1,16,18,-1,20,-1,-1,-1,-1],"split_conditions":[6.788E3,2.6225E3,5E2,7.056E3,1.01867714E2,3.5E0,1.14155716E2,9.817135E1,1.598E3,3.5E0,1.1103573E2,1.021527E2,1.11249596E2,1.88E2,6.295E2,9.640668E1,1.65E1,1.0582636E2,9.200095E1,9.521693E1,1.0474213E2],"split_indices":[5,54,53,9,0,76,0,0,6,73,0,0,0,63,63,0,70,0,0,0,0],"split_type":[0,0,0,0,0,0,0,0,0,0,0,0,0,0,0,0,0,0,0,0,0],"sum_hessian":[8.09E2,7.49E2,6E1,1.29E2,6.2E2,5.8E1,2E0,5.1E1,7.8E1,5.1E1,7E0,7.6E1,2E0,2E1,3.1E1,6E0,1.4E1,3E1,1E0,2E0,1.2E1],"tree_param":{"num_deleted":"0","num_feature":"82","num_nodes":"21","size_leaf_vector":"0"}},{"base_weights":[3.0644587E3,3.0546848E3,3.109716E3,2.9814233E3,3.057843E3,3.068785E3,3.142398E3,3.0588335E3,2.7262898E3,3.0504268E3,3.2397146E3,3.0574602E3,3.265907E3,2.872911E3,3.0823105E3,3.2047686E3,3.0537915E3,3.0659243E3,2.8061262E3,3.106343E3,2.963393E3],"categories":[],"categories_nodes":[],"categories_segments":[],"categories_sizes":[],"default_left":[1,0,0,0,1,0,0,1,0,0,0,0,0,0,0,0,0,0,0,0,0],"id":4,"left_children":[1,3,5,-1,7,9,-1,11,-1,13,-1,-1,-1,-1,15,-1,17,19,-1,-1,-1],"loss_changes":[2.41664E5,4.3008E4,7.3984E4,0E0,1.08544E5,8.0576E4,0E0,5.9392E4,0E0,2.20608E5,0E0,0E0,0E0,0E0,5.2064E4,0E0,1.5552E4,4.5504E4,0E0,0E0,0E0],"parents":[2147483647,0,0,1,1,2,2,4,4,5,5,7,7,9,9,14,14,16,16,17,17],"right_children":[2,4,6,-1,8,10,-1,12,-1,14,-1,-1,-1,-1,16,-1,18,20,-1,-1,-1],"split_conditions":[2.95E1,5E-1,6.55E2,9.626445E1,1.4E3,5E0,1.0146201E2,6.8855E3,8.802668E1,5.271E3,1.0460418E2,9.8719536E1,1.0544988E2,9.2760796E1,1.75E1,1.03475845E2,2.2E1,6.15E2,9.060445E1,1.0029787E2,9.568229E1],"split_indices":[1,80,4,0,54,0,0,5,0,8,0,0,0,0,70,0,65,4,0,0,0],"split_type":[0,0,0,0,0,0,0,0,0,0,0,0,0,0,0,0,0,0,0,0,0],"sum_hessian":[8.09E2,6.66E2,1.43E2,2.8E1,6.38E2,6.4E1,7.9E1,6.36E2,2E0,5.8E1,6E0,6.32E2,4E0,9E0,4.9E1,9E0,4E1,3.8E1,2E0,2.7E1,1.1E1],"tree_param":{"num_deleted":"0","num_feature":"82","num_nodes":"21","size_leaf_vector":"0"}},{"base_weights":[2.9710051E3,2.8015327E3,2.9818057E3,2.9727102E3,3.0525293E3],"categories":[],"categories_nodes":[],"categories_segments":[],"categories_sizes":[],"default_left":[0,0,1,0,0],"id":5,"left_children":[1,-1,3,-1,-1],"loss_changes":[1.358848E6,0E0,3.71712E5,0E0,0E0],"parents":[2147483647,0,0,2,2],"right_children":[2,-1,4,-1,-1],"split_conditions":[4.3705E3,9.045613E1,3.05E1,9.598312E1,9.8560326E1],"split_indices":[7,0,70,0,0],"split_type":[0,0,0,0,0],"sum_hessian":[7.98E2,4.8E1,7.5E2,6.65E2,8.5E1],"tree_param":{"num_deleted":"0","num_feature":"82","num_nodes":"5","size_leaf_vector":"0"}},{"base_weights":[2.8723083E3,2.8612405E3,2.9557405E3,2.8079668E3,2.8666516E3,2.6821802E3,2.9700955E3,2.7959468E3,2.954664E3,2.8972163E3,2.985931E3,2.8686292E3,2.7729907E3,2.9735554E3,3.1540195E3,2.7560042E3,3.153099E3,2.954179E3,3.1452803E3,2.6134417E3,2.8039578E3,2.7092644E3,2.9743716E3],"categories":[],"categories_nodes":[],"categories_segments":[],"categories_sizes":[],"default_left":[1,0,0,0,0,0,0,0,0,0,0,0,0,0,0,0,0,0,0,0,0,0,0],"id":6,"left_children":[1,3,5,7,-1,-1,9,11,-1,-1,13,-1,15,17,-1,19,-1,21,-1,-1,-1,-1,-1],"loss_changes":[6.72768E5,1.16224E5,2.87872E5,2.1184E4,0E0,0E0,2.112E3,9.984E3,0E0,0E0,4.3968E4,0E0,2.10752E5,1.23264E5,0E0,2.32224E5,0E0,2.18496E5,0E0,0E0,0E0,0E0,0E0],"parents":[2147483647,0,0,1,1,2,2,3,3,6,6,7,7,10,10,12,12,13,13,15,15,17,17],"right_children":[2,4,6,8,-1,-1,10,12,-1,-1,14,-1,16,18,-1,20,-1,22,-1,-1,-1,-1,-1],"split_conditions":[4.9195E3,3.805E2,2.4975E3,5E0,9.255869E1,8.660246E1,2.5E0,5E-1,9.5400444E1,9.354557E1,5E0,9.262254E1,6E0,6E0,1.0183725E2,4.133E3,1.0180753E2,4.48E3,1.0155508E2,8.4383026E1,9.053443E1,8.747696E1,9.6036766E1],"split_indices":[10,63,19,71,0,0,65,72,0,0,0,0,76,76,0,7,0,7,0,0,0,0,0],"split_type":[0,0,0,0,0,0,0,0,0,0,0,0,0,0,0,0,0,0,0,0,0,0,0],"sum_hessian":[8.4E2,7.42E2,9.8E1,6.9E1,6.73E2,5E0,9.3E1,6.4E1,5E0,1.7E1,7.6E1,1.5E1,4.9E1,7.1E1,5E0,4.7E1,2E0,6.4E1,7E0,1.2E1,3.5E1,5E0,5.9E1],"tree_param":{"num_deleted":"0","num_feature":"82","num_nodes":"23","size_leaf_vector":"0"}},{"base_weights":[2.7748862E3,2.7730713E3,2.931837E3,2.616067E3,2.7813145E3,2.8502395E3,3.082862E3,2.6267195E3,2.3990073E3,2.7749856E3,2.857098E3,2.7727783E3,2.9883262E3,2.813444E3,2.9220051E3,2.7987788E3,3.0370376E3,2.9048452E3,2.7634412E3],"categories":[],"categories_nodes":[],"categories_segments":[],"categories_sizes":[],"default_left":[1,0,0,0,1,0,0,0,0,1,0,0,0,0,0,0,0,0,0],"id":7,"left_children":[1,3,5,7,9,-1,-1,-1,-1,11,13,-1,-1,15,-1,17,-1,-1,-1],"loss_changes":[1.31584E5,9.44128E5,4.128E3,1.584E4,2.67264E5,0E0,0E0,0E0,0E0,2.28352E5,6.4352E4,0E0,0E0,1.1392E4,0E0,2.6064E4,0E0,0E0,0E0],"parents":[2147483647,0,0,1,1,2,2,3,3,4,4,9,9,10,10,13,13,15,15],"right_children":[2,4,6,8,10,-1,-1,-1,-1,12,14,-1,-1,16,-1,18,-1,-1,-1],"split_conditions":[1.1925E3,4.3705E3,5.1225E3,4.9645E3,5.054E3,9.202878E1,9.953971E1,8.4811745E1,7.745935E1,7.8045E3,5.5E0,8.95277E1,9.6487335E1,5E2,9.4345955E1,4.8975E3,9.806013E1,9.379189E1,8.922623E1],"split_indices":[13,7,7,10,10,0,0,0,0,9,73,0,0,22,0,3,0,0,0],"split_type":[0,0,0,0,0,0,0,0,0,0,0,0,0,0,0,0,0,0,0],"sum_hessian":[8.07E2,7.98E2,9E0,4E1,7.58E2,6E0,3E0,3.8E1,2E0,7E2,5.8E1,6.93E2,7E0,3.5E1,2.3E1,3.3E1,2E0,8E0,2.5E1],"tree_param":{"num_deleted":"0","num_feature":"82","num_nodes":"19","size_leaf_vector":"0"}},{"base_weights":[2.6868818E3,2.680423E3,2.8139702E3,2.5501394E3,2.6869211E3,2.7030686E3,2.8424365E3,2.2608787E3,2.5576155E3,2.6843118E3,2.8512363E3,2.3151113E3,2.7543784E3,2.931165E3,2.4760105E3],"categories":[],"categories_nodes":[],"categories_segments":[],"categories_sizes":[],"default_left":[1,0,0,0,1,0,0,0,0,0,0,0,0,0,0],"id":8,"left_children":[1,3,5,7,9,11,-1,-1,-1,-1,13,-1,-1,-1,-1],"loss_changes":[5.57056E5,5.54496E5,2.6496E4,7.504E3,2.14528E5,8.1884E4,0E0,0E0,0E0,0E0,2.41952E5,0E0,0E0,0E0,0E0],"parents":[2147483647,0,0,1,1,2,2,3,3,4,4,5,5,10,10],"right_children":[2,4,6,8,10,12,-1,-1,-1,-1,14,-1,-1,-1,-1],"split_conditions":[5.9865E3,4.662E3,7.697E3,6.004E3,7.8515E3,5.405E3,9.177683E1,7.299944E1,8.2580505E1,8.667129E1,5.8825E3,7.475051E1,8.893361E1,9.464171E1,7.994564E1],"split_indices":[8,10,9,2,9,2,0,0,0,0,8,0,0,0,0],"split_type":[0,0,0,0,0,0,0,0,0,0,0,0,0,0,0],"sum_hessian":[7.91E2,7.53E2,3.8E1,3.6E1,7.17E2,8E0,3E1,1E0,3.5E1,7.06E2,1.1E1,1E0,7E0,9E0,2E0],"tree_param":{"num_deleted":"0","num_feature":"82","num_nodes":"15","size_leaf_vector":"0"}},{"base_weights":[2.604537E3,2.600175E3,2.6672803E3,2.5977117E3,2.7768616E3,2.6197627E3,2.7237122E3,2.5347166E3,2.607878E3,2.3700205E3,2.8188057E3,2.5941506E3,2.9350222E3,2.6735806E3,2.8135068E3,2.740439E3,2.6025645E3,2.602996E3,2.3136836E3],"categories":[],"categories_nodes":[],"categories_segments":[],"categories_sizes":[],"default_left":[1,1,0,0,0,0,0,0,0,0,0,0,0,0,0,0,1,0,0],"id":9,"left_children":[1,3,5,7,9,11,13,-1,15,-1,-1,-1,-1,-1,-1,-1,17,-1,-1],"loss_changes":[1.32096E5,2.34496E5,4.9952E4,3.87584E5,8.956E4,1.3352E5,1.2064E4,0E0,3.56608E5,0E0,0E0,0E0,0E0,0E0,0E0,0E0,2.048E3,0E0,0E0],"parents":[2147483647,0,0,1,1,2,2,3,3,4,4,5,5,6,6,8,8,16,16],"right_children":[2,4,6,8,10,12,14,-1,16,-1,-1,-1,-1,-1,-1,-1,18,-1,-1],"split_conditions":[6.9965E3,6.888E3,6.7885E3,7.5445E3,6.8885E3,8.252E3,7.6175E3,8.184115E1,6.7585E3,7.652342E1,9.101384E1,8.3760155E1,9.476625E1,8.63248E1,9.084275E1,8.848353E1,6.2E2,8.404576E1,7.4704414E1],"split_indices":[2,5,5,9,9,9,9,0,2,0,0,0,0,0,0,0,47,0,0],"split_type":[0,0,0,0,0,0,0,0,0,0,0,0,0,0,0,0,0,0,0],"sum_hessian":[7.92E2,7.41E2,5.1E1,7.31E2,1E1,2.8E1,2.3E1,1.02E2,6.29E2,1E0,9E0,2.6E1,2E0,1.5E1,8E0,2.4E1,6.05E2,6.04E2,1E0],"tree_param":{"num_deleted":"0","num_feature":"82","num_nodes":"19","size_leaf_vector":"0"}},{"base_weights":[2.5177302E3,2.5138718E3,2.7522874E3,2.5120261E3,2.6722864E3,2.508398E3,2.7916206E3,2.5450654E3,2.7676387E3,2.5097288E3,2.3320088E3,2.507486E3,2.6385457E3,2.4725942E3,2.5156501E3,2.4112224E3,2.5055754E3,2.3074714E3,2.4390437E3,2.4264646E3,2.5353843E3,2.4258093E3,2.5918118E3,2.3062463E3,2.453736E3,2.5117068E3,2.6045703E3,2.4324646E3,2.1598618E3,2.524383E3,2.2995088E3],"categories":[],"categories_nodes":[],"categories_segments":[],"categories_sizes":[],"default_left":[1,1,0,1,0,1,0,0,0,1,0,0,0,0,0,0,0,0,0,0,0,0,0,0,0,0,0,0,0,0,0],"id":10,"left_children":[1,3,-1,5,7,9,-1,-1,-1,11,-1,13,-1,15,-1,17,19,-1,21,23,25,27,-1,-1,-1,29,-1,-1,-1,-1,-1],"loss_changes":[6.50752E5,1.51552E5,0E0,7.16288E5,2.3604E4,1.12128E5,0E0,0E0,0E0,1.42848E5,0E0,1.41312E5,0E0,2.19968E5,0E0,7.8752E4,1.4688E5,0E0,4.384E3,1.6416E4,3.1808E4,1.584E3,0E0,0E0,0E0,6.656E4,0E0,0E0,0E0,0E0,0E0],"parents":[2147483647,0,0,1,1,3,3,4,4,5,5,9,9,11,11,13,13,15,15,16,16,18,18,19,19,20,20,21,21,25,25],"right_children":[2,4,-1,6,8,10,-1,-1,-1,12,-1,14,-1,16,-1,18,20,-1,22,24,26,28,-1,-1,-1,30,-1,-1,-1,-1,-1],"split_conditions":[6.8925E3,1.3E1,8.886609E1,1.593E3,1.517E3,5.91E2,9.0136086E1,8.217529E1,8.9361755E1,4.625E2,7.52961E1,1.5E2,8.519359E1,4.7245E3,8.1225525E1,4.0545E3,4.5585E3,7.450384E1,4.8045E3,4.3195E3,5.0915E3,9.35E1,8.368464E1,7.446428E1,7.922644E1,6.8155E3,8.409659E1,7.853963E1,6.97378E1,8.15075E1,7.4246735E1],"split_indices":[5,79,0,6,6,63,0,0,0,47,0,17,0,10,0,7,7,0,7,7,7,70,0,0,0,3,0,0,0,0,0],"split_type":[0,0,0,0,0,0,0,0,0,0,0,0,0,0,0,0,0,0,0,0,0,0,0,0,0,0,0,0,0,0,0],"sum_hessian":[8.12E2,7.99E2,1.3E1,7.9E2,9E0,7.8E2,1E1,4E0,5E0,7.74E2,6E0,7.61E2,1.3E1,1.45E2,6.16E2,5.1E1,9.4E1,1.1E1,4E1,2.6E1,6.8E1,3.7E1,3E0,5E0,2.1E1,5.1E1,1.7E1,3.6E1,1E0,4.8E1,3E0],"tree_param":{"num_deleted":"0","num_feature":"82","num_nodes":"31","size_leaf_vector":"0"}},{"base_weights":[2.433126E3,2.4208862E3,2.5356323E3,2.3487314E3,2.4304531E3,2.5550515E3,2.4272837E3,2.3301475E3,2.4058188E3,2.5623208E3,2.3805962E3,2.3209421E3,2.504139E3,2.5422805E3,2.708535E3,2.525156E3,2.6673315E3],"categories":[],"categories_nodes":[],"categories_segments":[],"categories_sizes":[],"default_left":[1,0,0,0,0,0,0,0,0,0,0,0,0,0,0,0,0],"id":11,"left_children":[1,3,5,7,-1,9,-1,11,-1,13,-1,-1,-1,15,-1,-1,-1],"loss_changes":[9.15968E5,4.18048E5,1.01312E5,1.984E4,0E0,1.5808E4,0E0,3.0176E4,0E0,1.15488E5,0E0,0E0,0E0,4.656E4,0E0,0E0,0E0],"parents":[2147483647,0,0,1,1,2,2,3,3,5,5,7,7,9,9,13,13],"right_children":[2,4,6,8,-1,10,-1,12,-1,14,-1,-1,-1,16,-1,-1,-1],"split_conditions":[4.7375E3,7.5E0,4.5025E3,5E1,7.847468E1,2.2475E3,7.8372345E1,7.0085E3,7.767928E1,7.1E1,7.686489E1,7.493878E1,8.085385E1,1.85E2,8.745341E1,8.1532455E1,8.612303E1],"split_indices":[7,73,19,50,0,50,0,2,0,70,0,0,0,50,0,0,0],"split_type":[0,0,0,0,0,0,0,0,0,0,0,0,0,0,0,0,0],"sum_hessian":[7.9E2,7.06E2,8.4E1,8.3E1,6.23E2,7.1E1,1.3E1,6.3E1,2E1,6.8E1,3E0,6E1,3E0,6E1,8E0,5.3E1,7E0],"tree_param":{"num_deleted":"0","num_feature":"82","num_nodes":"17","size_leaf_vector":"0"}},{"base_weights":[2.3527935E3,2.344481E3,2.5367202E3,2.2754424E3,2.350071E3,2.1328352E3,2.29819E3,2.1646746E3,2.3524512E3,2.3053535E3,1.9307554E3,2.3511821E3,2.6323577E3,2.285224E3,2.4725002E3,2.437232E3,2.3488228E3,2.2912837E3,2.0062308E3,2.37992E3,2.5801055E3,2.3494172E3,2.1375066E3,2.1992708E3,2.3089158E3,2.109457E3,2.400299E3],"categories":[],"categories_nodes":[],"categories_segments":[],"categories_sizes":[],"default_left":[1,0,0,0,0,0,0,0,1,0,0,0,0,0,0,0,1,0,0,0,0,0,0,0,0,0,0],"id":12,"left_children":[1,3,-1,5,7,-1,9,-1,11,13,-1,15,-1,17,-1,19,21,23,-1,25,-1,-1,-1,-1,-1,-1,-1],"loss_changes":[1.135616E6,2.26816E5,0E0,1.2528E5,2.46272E5,0E0,7.4848E4,0E0,1.69984E5,9.2784E4,0E0,6.9888E4,0E0,1.6768E4,0E0,7.276E4,2.2784E4,6.352E3,0E0,1.0096E4,0E0,0E0,0E0,0E0,0E0,0E0,0E0],"parents":[2147483647,0,0,1,1,3,3,4,4,6,6,8,8,9,9,11,11,13,13,15,15,16,16,17,17,19,19],"right_children":[2,4,-1,6,8,-1,10,-1,12,14,-1,16,-1,18,-1,20,22,24,-1,26,-1,-1,-1,-1,-1,-1,-1],"split_conditions":[5.15E3,6.699E3,8.190584E1,4.555E3,4.485E3,6.8865166E1,2.75E3,6.9893196E1,1.1725E3,7.688E3,6.2340393E1,5.55E2,8.499379E1,6.2495E3,7.98323E1,5.813E3,4.5E0,2.775E3,6.477735E1,2.4975E3,8.330666E1,7.5858185E1,6.9016E1,7.101024E1,7.455047E1,6.811033E1,7.750106E1],"split_indices":[7,2,0,10,10,0,54,0,53,9,0,4,0,8,0,8,78,19,0,19,0,0,0,0,0,0,0],"split_type":[0,0,0,0,0,0,0,0,0,0,0,0,0,0,0,0,0,0,0,0,0,0,0,0,0,0,0],"sum_hessian":[7.9E2,7.56E2,3.4E1,5.7E1,6.99E2,8E0,4.9E1,9E0,6.9E2,4.8E1,1E0,6.87E2,3E0,4.3E1,5E0,1.8E1,6.69E2,4.2E1,1E0,1.3E1,5E0,6.67E2,2E0,7E0,3.5E1,1E0,1.2E1],"tree_param":{"num_deleted":"0","num_feature":"82","num_nodes":"27","size_leaf_vector":"0"}},{"base_weights":[2.2793506E3,2.2800808E3,2.123758E3,1.9107339E3,2.1867615E3],"categories":[],"categories_nodes":[],"categories_segments":[],"categories_sizes":[],"default_left":[1,0,0,0,0],"id":13,"left_children":[1,-1,3,-1,-1],"loss_changes":[3.4048E4,0E0,2.992E3,0E0,0E0],"parents":[2147483647,0,0,2,2],"right_children":[2,-1,4,-1,-1],"split_conditions":[7.1025E3,7.3619446E1,7.2115E3,6.169394E1,7.060634E1],"split_indices":[3,0,3,0,0],"split_type":[0,0,0,0,0],"sum_hessian":[8.21E2,8.17E2,4E0,1E0,3E0],"tree_param":{"num_deleted":"0","num_feature":"82","num_nodes":"5","size_leaf_vector":"0"}},{"base_weights":[2.203415E3,2.199576E3,2.3758325E3,2.0964497E3,2.2087163E3,2.1821853E3,2.4333203E3,2.1993176E3,2.2642864E3,2.2461843E3,2.3976387E3,2.2249058E3,2.314771E3,2.1372773E3,2.4814233E3,2.230379E3,2.029178E3,2.225801E3,2.502122E3,1.8401162E3,2.1938481E3,2.2292097E3,1.9801088E3,2.192349E3,2.2546902E3],"categories":[],"categories_nodes":[],"categories_segments":[],"categories_sizes":[],"default_left":[1,0,0,0,1,0,0,0,0,0,0,0,0,0,0,0,0,0,0,0,0,0,0,0,0],"id":14,"left_children":[1,3,5,-1,7,-1,-1,-1,9,11,13,15,-1,-1,-1,17,19,21,-1,-1,-1,23,-1,-1,-1],"loss_changes":[4.57984E5,6.7072E5,1.24768E5,0E0,3.08992E5,0E0,0E0,0E0,1.80736E5,6.8704E4,1.97488E5,1.8848E4,0E0,0E0,0E0,1.5584E4,1.3509E4,1.568E3,0E0,0E0,0E0,8.96E2,0E0,0E0,0E0],"parents":[2147483647,0,0,1,1,2,2,4,4,8,8,9,9,10,10,11,11,15,15,16,16,17,17,21,21],"right_children":[2,4,6,-1,8,-1,-1,-1,10,12,14,16,-1,-1,-1,18,20,22,-1,-1,-1,24,-1,-1,-1],"split_conditions":[6.892E3,4.5585E3,4.479E3,6.7690346E1,6.6145E3,7.045859E1,7.856725E1,7.101176E1,4E0,5.0985E3,4.9455E3,4.5E2,7.4739525E1,6.900859E1,8.012041E1,1.775E2,6.75E1,1.5525E3,8.0788734E1,5.941383E1,7.083516E1,7.135E3,6.393392E1,7.078676E1,7.279963E1],"split_indices":[5,7,7,0,5,0,0,0,76,7,7,33,0,0,0,1,1,6,0,0,0,9,0,0,0],"split_type":[0,0,0,0,0,0,0,0,0,0,0,0,0,0,0,0,0,0,0,0,0,0,0,0,0],"sum_hessian":[7.88E2,7.71E2,1.7E1,6.3E1,7.08E2,4E0,1.3E1,6.06E2,1.02E2,9E1,1.2E1,6.9E1,2.1E1,3E0,9E0,6.7E1,2E0,6.6E1,1E0,1E0,1E0,6.5E1,1E0,2.7E1,3.8E1],"tree_param":{"num_deleted":"0","num_feature":"82","num_nodes":"25","size_leaf_vector":"0"}},{"base_weights":[2.1299612E3,2.1263445E3,2.2934214E3,2.0463192E3,2.1308896E3,2.0932974E3,2.3529832E3,1.987209E3,2.0896226E3,2.1244976E3,2.202247E3,2.3967817E3,2.099056E3,1.80262E3,2.1249434E3,2.1643428E3,2.2418408E3,2.122702E3,2.2050176E3,2.0707644E3,2.201459E3,2.2701982E3,2.1005452E3,2.123551E3,1.8342725E3,2.2159873E3,1.8733953E3,2.1419585E3,2.2945286E3,2.1239563E3,1.8369657E3,2.0076223E3,2.2633435E3,2.1233599E3,2.3037695E3],"categories":[],"categories_nodes":[],"categories_segments":[],"categories_sizes":[],"default_left":[1,0,0,0,1,0,0,0,0,0,0,0,0,0,1,0,0,1,0,0,0,0,0,1,0,0,0,0,0,1,0,0,0,0,0],"id":15,"left_children":[1,3,5,7,9,-1,11,-1,-1,13,15,-1,-1,-1,17,19,21,23,-1,-1,25,27,-1,29,-1,-1,-1,31,-1,33,-1,-1,-1,-1,-1],"loss_changes":[4.09344E5,2.2912E5,1.42832E5,5.7008E4,2.78016E5,0E0,8.3488E4,0E0,0E0,4.992E4,3.1008E4,0E0,0E0,0E0,6.3744E4,5.224E4,5.8192E4,1.13152E5,0E0,0E0,5.4376E4,1.5112E4,0E0,2.8416E4,0E0,0E0,0E0,1.012E4,0E0,1.0496E4,0E0,0E0,0E0,0E0,0E0],"parents":[2147483647,0,0,1,1,2,2,3,3,4,4,6,6,9,9,10,10,14,14,15,15,16,16,17,17,20,20,21,21,23,23,27,27,29,29],"right_children":[2,4,6,8,10,-1,12,-1,-1,14,16,-1,-1,-1,18,20,22,24,-1,-1,26,28,-1,30,-1,-1,-1,32,-1,34,-1,-1,-1,-1,-1],"split_conditions":[4E0,4.6615E3,2.21E2,3.9E1,5.25E1,6.758856E1,7.35E1,6.416318E1,6.746991E1,2.5E0,6.9925E3,7.73875E1,6.77745E1,5.8203148E1,6.005E3,7.21E3,1.7E2,7.647E3,7.119579E1,6.6861015E1,5.025E2,6.9175E3,6.7822586E1,1.32E3,5.9225147E1,7.154999E1,6.0488346E1,2.9E2,7.408594E1,1.1675E3,5.9312107E1,6.482228E1,7.3079025E1,6.855923E1,7.438431E1],"split_indices":[76,10,63,1,1,0,1,0,0,1,2,0,0,0,8,9,55,9,0,0,33,9,0,54,0,0,0,47,0,13,0,0,0,0,0],"split_type":[0,0,0,0,0,0,0,0,0,0,0,0,0,0,0,0,0,0,0,0,0,0,0,0,0,0,0,0,0,0,0,0,0,0,0],"sum_hessian":[7.93E2,7.76E2,1.7E1,4.2E1,7.34E2,4E0,1.3E1,1.8E1,2.4E1,6.74E2,6E1,1.1E1,2E0,1E0,6.73E2,3.1E1,2.9E1,6.55E2,1.8E1,9E0,2.2E1,2.4E1,5E0,6.53E2,2E0,2.1E1,1E0,4E0,2E1,6.52E2,1E0,2E0,2E0,6.5E2,2E0],"tree_param":{"num_deleted":"0","num_feature":"82","num_nodes":"35","size_leaf_vector":"0"}},{"base_weights":[2.0686504E3,2.0658557E3,2.1119873E3,2.0634365E3,2.3144736E3,2.0532363E3,2.1626643E3,2.021885E3,2.0674548E3,2.0730955E3,1.8433098E3,2.0271506E3,2.1872876E3,2.0471487E3,1.9804872E3,2.0688884E3,1.99357E3,2.1056172E3,1.9931041E3,2.2570496E3,2.1327332E3,1.6892098E3,2.0557969E3,1.9992448E3,1.7539901E3,2.067956E3,2.261766E3,2.0127821E3,1.7415992E3,2.0004612E3,2.1337615E3,1.7877904E3,2.0298567E3,1.9454637E3,2.070615E3,2.0447373E3,1.841608E3,1.9695773E3,2.0838027E3,1.9445854E3,1.6981085E3,2.068622E3,2.2064822E3,2.0676714E3,2.2572146E3],"categories":[],"categories_nodes":[],"categories_segments":[],"categories_sizes":[],"default_left":[1,1,0,0,0,0,0,0,1,0,0,0,0,0,0,1,0,0,0,0,0,0,0,0,0,0,0,0,0,0,0,0,0,0,1,0,0,0,0,0,0,1,0,0,0],"id":16,"left_children":[1,3,5,7,-1,9,11,13,15,17,-1,-1,19,21,23,25,27,-1,-1,-1,-1,-1,29,31,-1,33,-1,35,-1,37,-1,39,-1,-1,41,-1,-1,-1,-1,-1,-1,43,-1,-1,-1],"loss_changes":[4.224E4,3.85536E5,8.5936E4,7.1168E4,0E0,4.5264E4,2.9496E4,1.8656E4,2.0224E4,9.76E2,0E0,0E0,2.1376E4,8.1568E4,6.3576E4,6.0672E4,2.032E4,0E0,0E0,0E0,0E0,0E0,1.16368E5,1.04784E5,0E0,1.6256E5,0E0,1.9872E4,0E0,9.28E3,0E0,2.161E3,0E0,0E0,1.16736E5,0E0,0E0,0E0,0E0,0E0,0E0,5.5808E4,0E0,0E0,0E0],"parents":[2147483647,0,0,1,1,2,2,3,3,5,5,6,6,7,7,8,8,9,9,12,12,13,13,14,14,15,15,16,16,22,22,23,23,25,25,27,27,29,29,31,31,34,34,41,41],"right_children":[2,4,6,8,-1,10,12,14,16,18,-1,-1,20,22,24,26,28,-1,-1,-1,-1,-1,30,32,-1,34,-1,36,-1,38,-1,40,-1,-1,42,-1,-1,-1,-1,-1,-1,44,-1,-1,-1],"split_conditions":[7.5E0,1.592E3,3.7E1,3.505E2,7.472992E1,1E3,3.27E2,4.238E3,4.995E2,3.985E3,5.9516945E1,6.545281E1,4.175E2,6.027E3,6.8205E3,1.534E3,6.836E3,6.798635E1,6.4353516E1,7.287581E1,6.886187E1,5.454135E1,7.3245E3,4.638E3,5.6632984E1,4.651E3,7.30281E1,7.45E2,5.6232906E1,5.587E3,6.889507E1,5.438E3,6.5540184E1,6.28153E1,5.949E3,6.602065E1,5.9461998E1,6.359388E1,6.7282E1,6.278694E1,5.4828674E1,5.0395E3,7.124309E1,6.6761154E1,7.288114E1],"split_indices":[73,6,70,63,0,13,63,19,63,19,0,0,63,5,5,6,5,0,0,0,0,0,9,10,0,10,0,14,0,8,0,8,0,0,8,0,0,0,0,0,0,7,0,0,0],"split_type":[0,0,0,0,0,0,0,0,0,0,0,0,0,0,0,0,0,0,0,0,0,0,0,0,0,0,0,0,0,0,0,0,0,0,0,0,0,0,0,0,0,0,0,0,0],"sum_hessian":[7.85E2,7.38E2,4.7E1,7.31E2,7E0,2.2E1,2.5E1,6.5E1,6.66E2,2E1,2E0,4E0,2.1E1,4E1,2.5E1,6.53E2,1.3E1,1.4E1,6E0,9E0,1.2E1,1E0,3.9E1,2.3E1,2E0,6.5E2,3E0,1.2E1,1E0,2.3E1,1.6E1,3E0,2E1,1.4E1,6.36E2,1E1,2E0,1.7E1,6E0,1E0,2E0,6.27E2,9E0,6.24E2,3E0],"tree_param":{"num_deleted":"0","num_feature":"82","num_nodes":"45","size_leaf_vector":"0"}},{"base_weights":[2.0058602E3,2.0026733E3,2.232264E3,1.9110454E3,2.0090979E3,1.9515873E3,1.8726445E3,2.0068823E3,2.1141775E3,1.9856396E3,2.010614E3,1.9911897E3,1.7822849E3,2.009172E3,2.0951675E3,1.9844408E3,2.156748E3,1.942924E3,1.6907028E3,1.974315E3,2.1002405E3,1.9716902E3,2.1917913E3,1.976039E3,1.8337695E3],"categories":[],"categories_nodes":[],"categories_segments":[],"categories_sizes":[],"default_left":[1,0,0,0,1,0,0,0,0,0,1,0,0,0,0,0,0,0,0,0,0,0,0,0,0],"id":17,"left_children":[1,3,-1,5,7,-1,-1,9,-1,11,13,15,17,-1,-1,19,-1,-1,-1,21,-1,23,-1,-1,-1],"loss_changes":[5.2352E5,4.18304E5,0E0,3.6496E4,1.2032E5,0E0,0E0,8.704E3,0E0,7.9872E4,2.3552E4,6.6368E4,4.327E3,0E0,0E0,6.9152E4,0E0,0E0,0E0,1.024E3,0E0,1.1712E4,0E0,0E0,0E0],"parents":[2147483647,0,0,1,1,3,3,4,4,7,7,9,9,10,10,11,11,12,12,15,15,19,19,21,21],"right_children":[2,4,-1,6,8,-1,-1,10,-1,12,14,16,18,-1,-1,20,-1,-1,-1,22,-1,24,-1,-1,-1],"split_conditions":[1.593E3,4.69E3,7.207553E1,1.5E0,6.8745E3,6.3013016E1,6.0464108E1,1E3,6.826274E1,5.955E2,3.25E2,9.518E3,7.509E3,6.4872314E1,6.764895E1,4.725E2,6.963727E1,6.2733295E1,5.4589554E1,1.0625E3,6.7812744E1,6.841E3,7.0768745E1,6.3802513E1,5.9208908E1],"split_indices":[6,10,0,0,5,0,0,13,0,63,63,9,9,0,0,47,0,0,0,55,0,5,0,0,0],"split_type":[0,0,0,0,0,0,0,0,0,0,0,0,0,0,0,0,0,0,0,0,0,0,0,0,0],"sum_hessian":[8.01E2,7.9E2,1.1E1,5.2E1,7.38E2,2.5E1,2.7E1,7.23E2,1.5E1,1.09E2,6.14E2,1.06E2,3E0,6.04E2,1E1,1.02E2,4E0,1E0,2E0,9.4E1,8E0,9.3E1,1E0,9E1,3E0],"tree_param":{"num_deleted":"0","num_feature":"82","num_nodes":"25","size_leaf_vector":"0"}},{"base_weights":[1.933005E3,1.9293784E3,2.054351E3,1.8697815E3,1.9332789E3,2.0947793E3,1.8666226E3,1.85533E3,1.9834927E3,1.9296505E3,1.9879039E3,2.1146606E3,1.7354392E3,1.7863014E3,2.0832175E3,1.7492251E3,1.9095345E3,1.795961E3,1.9336162E3,1.8913558E3,2.0387821E3,1.9300542E3,2.169605E3,1.606111E3,1.7714264E3,1.8860997E3,1.9875732E3,1.8135441E3,1.636443E3,1.9323892E3,2.0162407E3,1.8336984E3,1.9739562E3,1.9359297E3,2.060106E3,1.9300532E3,1.9669346E3,1.9003112E3,1.6933347E3,1.9312258E3,1.8423851E3],"categories":[],"categories_nodes":[],"categories_segments":[],"categories_sizes":[],"default_left":[1,0,0,0,1,0,0,0,0,0,0,0,0,0,0,0,0,0,1,0,0,0,0,0,0,0,0,0,0,1,0,0,0,0,0,1,0,0,0,0,0],"id":18,"left_children":[1,3,5,7,9,11,13,15,-1,17,19,21,-1,-1,-1,23,25,27,29,31,33,-1,-1,-1,-1,-1,-1,-1,-1,35,-1,37,-1,-1,-1,39,-1,-1,-1,-1,-1],"loss_changes":[2.88512E5,1.28768E5,1.19472E5,3.0816E4,9.1136E4,8.4008E4,2.4505E4,1.95216E5,0E0,3.0464E5,1.64352E5,1.21584E5,0E0,0E0,0E0,9.888E3,3.768E3,1.7196E4,1.6896E4,2.7436E4,1.2904E4,0E0,0E0,0E0,0E0,0E0,0E0,0E0,0E0,4.352E3,0E0,4.5092E4,0E0,0E0,0E0,1.6896E4,0E0,0E0,0E0,0E0,0E0],"parents":[2147483647,0,0,1,1,2,2,3,3,4,4,5,5,6,6,7,7,9,9,10,10,11,11,15,15,16,16,17,17,18,18,19,19,20,20,29,29,31,31,35,35],"right_children":[2,4,6,8,10,12,14,16,-1,18,20,22,-1,-1,-1,24,26,28,30,32,34,-1,-1,-1,-1,-1,-1,-1,-1,36,-1,38,-1,-1,-1,40,-1,-1,-1,-1,-1],"split_conditions":[3.5E0,2.55E1,6.593E3,6.4125E3,3.9975E3,4.8425E3,5.375E2,4.3425E3,6.404318E1,4.3705E3,4.587E3,4.794E3,5.6034008E1,5.767625E1,6.726311E1,5.839E3,6.782E3,5.89E2,8.8E2,6.8745E3,6.691E3,6.2317757E1,7.005239E1,5.185825E1,5.719597E1,6.089855E1,6.4174934E1,5.8555866E1,5.2837612E1,5.6295E3,6.5100555E1,5.59E3,6.3735268E1,6.2507465E1,6.651688E1,6.5E1,6.3508553E1,6.135741E1,5.4674538E1,6.2355583E1,5.9487087E1],"split_indices":[76,1,3,19,19,19,14,7,0,7,7,7,0,0,0,2,2,63,13,2,2,0,0,0,0,0,0,0,0,8,0,8,0,0,0,1,0,0,0,0,0],"split_type":[0,0,0,0,0,0,0,0,0,0,0,0,0,0,0,0,0,0,0,0,0,0,0,0,0,0,0,0,0,0,0,0,0,0,0,0,0,0,0,0,0],"sum_hessian":[7.65E2,7.43E2,2.2E1,4.6E1,6.97E2,1.8E1,4E0,4.1E1,5E0,6.54E2,4.3E1,1.7E1,1E0,3E0,1E0,1.4E1,2.7E1,1.9E1,6.35E2,1.5E1,2.8E1,4E0,1.3E1,2E0,1.2E1,2.1E1,6E0,1.7E1,2E0,6.26E2,9E0,9E0,6E0,5E0,2.3E1,5.87E2,3.9E1,6E0,3E0,5.79E2,8E0],"tree_param":{"num_deleted":"0","num_feature":"82","num_nodes":"41","size_leaf_vector":"0"}},{"base_weights":[1.8739366E3,1.8709269E3,2.087241E3,1.874665E3,1.8004755E3,1.8713132E3,1.9747788E3,1.7469368E3,1.8733795E3,1.9884832E3,1.6394628E3,1.7902709E3,1.6102279E3,1.8719084E3,1.9742507E3,1.9356385E3,2.0844773E3,2.1024163E3,1.9157701E3,1.888212E3,2.0028131E3,1.9757019E3,1.7549E3],"categories":[],"categories_nodes":[],"categories_segments":[],"categories_sizes":[],"default_left":[1,1,0,1,0,0,0,0,1,0,0,0,0,0,0,0,0,0,0,0,0,0,0],"id":19,"left_children":[1,3,-1,5,-1,7,9,11,13,15,-1,-1,-1,-1,17,19,-1,-1,21,-1,-1,-1,-1],"loss_changes":[4.65408E5,1.664E5,0E0,2.05824E5,0E0,1.46688E5,7.0656E4,3.6064E4,6.0672E4,6.7632E4,0E0,0E0,0E0,0E0,2.6016E4,1.796E3,0E0,0E0,2.5404E4,0E0,0E0,0E0,0E0],"parents":[2147483647,0,0,1,1,3,3,5,5,6,6,7,7,8,8,9,9,14,14,15,15,18,18],"right_children":[2,4,-1,6,-1,8,10,12,14,16,-1,-1,-1,-1,18,20,-1,-1,22,-1,-1,-1,-1],"split_conditions":[1.593E3,8.075E2,6.739301E1,2.725E2,5.8133907E1,4.4805E3,1.1E1,6E0,6.8955E3,6.839E3,5.2935116E1,5.780442E1,5.1991177E1,6.0440342E1,1.517E3,1.52E3,6.730378E1,6.7882996E1,1.475E2,6.096675E1,6.4667E1,6.3791634E1,5.666236E1],"split_indices":[6,54,0,47,0,10,64,73,5,5,0,0,0,0,6,6,0,0,18,0,0,0,0],"split_type":[0,0,0,0,0,0,0,0,0,0,0,0,0,0,0,0,0,0,0,0,0,0,0],"sum_hessian":[7.99E2,7.88E2,1.1E1,7.48E2,4E1,7.24E2,2.4E1,1.2E1,7.12E2,2.3E1,1E0,9E0,3E0,7.02E2,1E1,1.5E1,8E0,3E0,7E0,9E0,6E0,5E0,2E0],"tree_param":{"num_deleted":"0","num_feature":"82","num_nodes":"23","size_leaf_vector":"0"}},{"base_weights":[1.8093191E3,1.833055E3,1.8028778E3,1.7292339E3,1.8893286E3,1.6398063E3,1.8053867E3,1.7369904E3,1.5702893E3,1.8694868E3,2.0559192E3,1.5958108E3,1.7356016E3,1.8041068E3,1.8767347E3,1.7449745E3,1.6222502E3,1.8287522E3,1.899999E3,1.6819536E3,1.5262987E3,1.649141E3,1.8050634E3,1.6690842E3,1.755616E3,1.5608474E3,1.7854808E3,1.8156495E3,1.9997653E3,1.8528164E3,1.9350474E3,1.7013804E3,1.4738533E3,1.804305E3,1.9548767E3,1.8252706E3,1.6869012E3,1.9529653E3,1.7996133E3,1.8039441E3,2.0047606E3,1.783208E3,1.8661652E3,1.7148522E3,2.0302263E3,1.8047689E3,1.7283497E3],"categories":[],"categories_nodes":[],"categories_segments":[],"categories_sizes":[],"default_left":[0,0,0,0,0,0,1,0,0,0,0,0,0,0,0,0,0,0,0,0,0,0,1,0,0,0,0,0,0,0,0,0,0,1,0,0,0,0,0,1,0,0,0,0,0,0,0],"id":20,"left_children":[1,3,5,7,9,11,13,15,-1,17,-1,19,-1,21,-1,23,25,27,29,-1,-1,31,33,-1,-1,-1,-1,35,-1,-1,37,-1,-1,39,-1,41,-1,-1,43,45,-1,-1,-1,-1,-1,-1,-1],"loss_changes":[8.6272E4,9.88608E5,2.30656E5,4.3248E4,3.3008E5,8.478E3,1.7536E4,1.9584E4,0E0,8.448E4,0E0,1.0736E4,0E0,5.7344E4,0E0,8.752E3,6.287E3,5.4432E4,5.2288E4,0E0,0E0,6.21E3,2.8288E4,0E0,0E0,0E0,0E0,1.3328E4,0E0,0E0,3.7328E4,0E0,0E0,1.152E3,0E0,2.488E4,0E0,0E0,3.6048E4,8.96E2,0E0,0E0,0E0,0E0,0E0,0E0,0E0],"parents":[2147483647,0,0,1,1,2,2,3,3,4,4,5,5,6,6,7,7,9,9,11,11,13,13,15,15,16,16,17,17,18,18,21,21,22,22,27,27,30,30,33,33,35,35,38,38,39,39],"right_children":[2,4,6,8,10,12,14,16,-1,18,-1,20,-1,22,-1,24,26,28,30,-1,-1,32,34,-1,-1,-1,-1,36,-1,-1,38,-1,-1,40,-1,42,-1,-1,44,46,-1,-1,-1,-1,-1,-1,-1],"split_conditions":[8.125E2,4.517E3,4.292E3,2.125E2,1.5915E3,4.25E1,7.45E2,1.075E2,5.0701637E1,3.05E1,6.63817E1,5E0,5.6039253E1,1.55E1,6.0596172E1,1.67E2,6.2635E3,5.455E3,4.7465E3,5.4307064E1,4.9281265E1,6.7745E3,5.0095E3,5.3891533E1,5.668548E1,5.0396774E1,5.7649757E1,1.25E1,6.456859E1,5.9823895E1,7E0,5.4934315E1,4.7587902E1,1.15E1,6.311923E1,7.279E3,5.4466812E1,6.305751E1,8.0105E3,2.55E1,6.472988E1,5.7576374E1,6.02549E1,5.5369293E1,6.5552124E1,5.8272533E1,5.5805103E1],"split_indices":[54,7,7,48,6,70,4,70,0,70,0,70,0,70,0,63,3,7,7,0,0,3,7,0,0,0,0,80,0,0,64,0,0,80,0,9,0,0,9,70,0,0,0,0,0,0,0],"split_type":[0,0,0,0,0,0,0,0,0,0,0,0,0,0,0,0,0,0,0,0,0,0,0,0,0,0,0,0,0,0,0,0,0,0,0,0,0,0,0,0,0,0,0,0,0,0,0],"sum_hessian":[8.28E2,1.76E2,6.52E2,6.2E1,1.14E2,1E1,6.42E2,5.9E1,3E0,1.02E2,1.2E1,7E0,3E0,6.31E2,1.1E1,5.5E1,4E0,4.4E1,5.8E1,3E0,4E0,4E0,6.27E2,7E0,4.8E1,3E0,1E0,4.1E1,3E0,2.5E1,3.3E1,3E0,1E0,6.24E2,3E0,3.8E1,3E0,2.9E1,4E0,6.23E2,1E0,1.9E1,1.9E1,3E0,1E0,6.16E2,7E0],"tree_param":{"num_deleted":"0","num_feature":"82","num_nodes":"47","size_leaf_vector":"0"}},{"base_weights":[1.7518448E3,1.7487644E3,1.9611099E3,1.6586107E3,1.7520802E3,1.666285E3,1.4414452E3,1.7490573E3,1.8700591E3,1.5917484E3,1.7045789E3,1.6355021E3,1.7526594E3,1.5373726E3,1.8885153E3,1.611359E3,1.7389302E3,1.6780675E3,1.7540657E3,1.6303248E3,1.903401E3,1.6346436E3,1.4163236E3,1.5207334E3,1.7233622E3,1.7524856E3,1.9015447E3,1.5746365E3,1.7089292E3,1.4335724E3,1.6757258E3,1.751071E3,1.9353612E3,1.9613374E3,1.7411069E3,1.854262E3,1.7502526E3,1.7485101E3,1.8109849E3,1.7510413E3,1.7066965E3,1.6990614E3,1.8319742E3,1.7197017E3,1.4700839E3,1.8702909E3,1.750987E3,1.6727919E3,1.7974489E3,1.8902137E3,1.6704177E3,1.6938889E3,1.5730062E3],"categories":[],"categories_nodes":[],"categories_segments":[],"categories_sizes":[],"default_left":[1,0,0,0,1,0,0,0,0,0,0,0,0,0,0,0,0,0,1,0,0,0,0,0,0,1,0,0,0,0,0,0,0,0,0,0,1,1,0,0,0,0,0,0,0,0,0,0,0,0,0,0,0],"id":21,"left_children":[1,3,-1,5,7,9,-1,11,13,-1,-1,15,17,-1,19,21,-1,23,25,-1,-1,27,-1,29,-1,31,33,-1,-1,-1,-1,35,-1,-1,-1,-1,37,39,41,-1,43,-1,45,47,-1,49,-1,51,-1,-1,-1,-1,-1],"loss_changes":[4.5184E5,1.90208E5,0E0,1.5776E4,2.19904E5,4.1216E4,0E0,2.55488E5,7.5252E4,0E0,0E0,2.086E4,3.6096E4,0E0,2.7612E4,5.3608E4,0E0,6.0824E4,1.16864E5,0E0,0E0,3.8616E4,0E0,1.14455E4,0E0,1.31584E5,2.5698E4,0E0,0E0,0E0,0E0,1.6384E4,0E0,0E0,0E0,0E0,3.1232E4,3.136E4,4.424E3,0E0,8.3112E4,0E0,6.724E3,9.1096E4,0E0,1.432E3,0E0,1.39E4,0E0,0E0,0E0,0E0,0E0],"parents":[2147483647,0,0,1,1,3,3,4,4,5,5,7,7,8,8,11,11,12,12,14,14,15,15,17,17,18,18,21,21,23,23,25,25,26,26,31,31,36,36,37,37,38,38,40,40,42,42,43,43,45,45,47,47],"right_children":[2,4,-1,6,8,10,-1,12,14,-1,-1,16,18,-1,20,22,-1,24,26,-1,-1,28,-1,30,-1,32,34,-1,-1,-1,-1,36,-1,-1,-1,-1,38,40,42,-1,44,-1,46,48,-1,50,-1,52,-1,-1,-1,-1,-1],"split_conditions":[1.5915E3,5.3025E3,6.3320484E1,7.0165E3,2.725E2,4.4365E3,4.6541504E1,4.688E3,6.9665E3,5.139451E1,5.503759E1,4.15E2,6.129E3,4.9638817E1,2.495E3,4.25E3,5.6146725E1,1.5E0,5E0,5.2640068E1,6.1457176E1,1.516E3,4.5730377E1,4.6695E3,5.5644066E1,5E0,1.5185E3,5.0842E1,5.517805E1,4.6287308E1,5.410598E1,2.49E3,6.248911E1,6.332783E1,5.621701E1,5.9870567E1,5.9915E3,3.505E3,3.0075E3,5.653777E1,6.826E3,5.485944E1,4.02E3,6.55E2,4.7466194E1,1.9E1,5.653602E1,2.5E2,5.8036182E1,6.1031384E1,5.393459E1,5.469243E1,5.078936E1],"split_indices":[6,8,0,2,47,10,0,10,2,0,0,55,2,0,19,19,0,0,0,0,0,6,0,7,0,79,6,0,0,0,0,19,0,0,0,0,8,19,19,0,5,0,19,4,0,65,0,53,0,0,0,0,0],"split_type":[0,0,0,0,0,0,0,0,0,0,0,0,0,0,0,0,0,0,0,0,0,0,0,0,0,0,0,0,0,0,0,0,0,0,0,0,0,0,0,0,0,0,0,0,0,0,0,0,0,0,0,0,0],"sum_hessian":[7.66E2,7.55E2,1.1E1,2.7E1,7.28E2,2.6E1,1E0,7.1E2,1.8E1,9E0,1.7E1,2.2E1,6.88E2,1E0,1.7E1,1.8E1,4E0,1.3E1,6.75E2,1E0,1.6E1,1.6E1,2E0,3E0,1E1,6.68E2,7E0,9E0,7E0,2E0,1E0,6.63E2,5E0,5E0,2E0,5E0,6.58E2,6.4E2,1.8E1,6.03E2,3.7E1,3E0,1.5E1,3.5E1,2E0,1E1,5E0,2.2E1,1.3E1,9E0,1E0,1.8E1,4E0],"tree_param":{"num_deleted":"0","num_feature":"82","num_nodes":"53","size_leaf_vector":"0"}},{"base_weights":[1.6969103E3,1.6936029E3,1.7426987E3,1.5902222E3,1.6995204E3,1.6963777E3,1.8203651E3,1.3674495E3,1.5953739E3,1.6983213E3,1.8370975E3,1.6391539E3,1.7461017E3,1.7432267E3,1.8814825E3,1.6136812E3,1.4885774E3,1.6963007E3,1.8970919E3,1.5855085E3,1.725173E3,1.5585476E3,1.7683438E3,1.5947899E3,1.6836533E3,1.6965731E3,1.4877296E3,1.6306698E3,1.3960945E3,1.4233933E3,1.6969397E3,1.5487347E3,1.7076594E3,1.6964435E3,1.8582891E3],"categories":[],"categories_nodes":[],"categories_segments":[],"categories_sizes":[],"default_left":[1,0,0,0,1,0,0,0,0,1,0,0,0,0,0,0,0,1,0,0,0,0,0,0,0,0,0,0,0,0,1,0,0,0,0],"id":22,"left_children":[1,3,5,7,9,11,13,-1,15,17,-1,19,21,-1,-1,23,-1,25,-1,27,-1,-1,-1,-1,-1,29,-1,31,-1,-1,33,-1,-1,-1,-1],"loss_changes":[8.6528E4,4.28288E5,1.56736E5,2.0504E4,7.9616E4,6.1928E4,5.442E4,0E0,4.8984E4,2.44736E5,0E0,4.0588E4,4.1592E4,0E0,0E0,1.2272E4,0E0,9.216E3,0E0,5.793E4,0E0,0E0,0E0,0E0,0E0,4.0576E4,0E0,1.8344E4,0E0,0E0,1.7408E4,0E0,0E0,0E0,0E0],"parents":[2147483647,0,0,1,1,2,2,3,3,4,4,5,5,6,6,8,8,9,9,11,11,12,12,15,15,17,17,19,19,25,25,27,27,30,30],"right_children":[2,4,6,8,10,12,14,-1,16,18,-1,20,22,-1,-1,24,-1,26,-1,28,-1,-1,-1,-1,-1,30,-1,32,-1,-1,34,-1,-1,-1,-1],"split_conditions":[6.9965E3,4.3715E3,4.9365E3,6.027E3,6.888E3,4.6E1,2.75E1,4.4152325E1,4.84E3,1.593E3,5.9316364E1,1.52E3,1.506E3,5.6285454E1,6.074947E1,6.872E3,4.8063313E1,1.55E1,6.1253468E1,7E0,5.5702534E1,5.0322517E1,5.7096436E1,5.1492714E1,5.4361942E1,4.3935E3,4.8035942E1,6E0,4.5077217E1,4.5958645E1,1.255E3,5.000568E1,5.5137054E1,5.4774914E1,6.0000595E1],"split_indices":[2,7,7,5,5,70,70,0,10,6,0,6,6,0,0,2,0,80,0,80,0,0,0,0,0,10,0,65,0,0,13,0,0,0,0],"split_type":[0,0,0,0,0,0,0,0,0,0,0,0,0,0,0,0,0,0,0,0,0,0,0,0,0,0,0,0,0,0,0,0,0,0,0],"sum_hessian":[8.08E2,7.54E2,5.4E1,4.1E1,7.13E2,3.4E1,2E1,1E0,4E1,7.07E2,6E0,1.6E1,1.8E1,9E0,1.1E1,3.4E1,6E0,7E2,7E0,1E1,6E0,2E0,1.6E1,2.7E1,7E0,6.99E2,1E0,8E0,2E0,1E0,6.98E2,4E0,4E0,6.96E2,2E0],"tree_param":{"num_deleted":"0","num_feature":"82","num_nodes":"35","size_leaf_vector":"0"}},{"base_weights":[1.6448318E3,1.6368724E3,1.7560068E3,1.5998069E3,1.6453401E3,1.7331874E3,1.8163868E3,1.5418771E3,1.6401172E3,1.6434425E3,1.7438174E3,1.699378E3,1.857199E3,1.3599175E3,1.5448839E3,1.6364429E3,1.9072264E3,1.643761E3,1.4408444E3,1.5289125E3,1.7634236E3,1.7178418E3,1.6221962E3,1.4993108E3,1.559996E3,1.6389304E3,1.4250486E3,1.7745413E3,1.6682507E3,1.4915089E3,1.6828182E3,1.5462023E3,1.6371667E3,1.6332664E3,1.7384425E3,1.7460278E3,1.6313724E3,1.5514602E3,1.3509272E3,1.6302874E3,1.8285237E3,1.623247E3,1.7218651E3],"categories":[],"categories_nodes":[],"categories_segments":[],"categories_sizes":[],"default_left":[1,0,0,0,1,0,0,0,0,1,0,0,0,0,0,0,0,0,0,0,0,0,0,0,0,0,0,0,0,0,0,0,0,0,0,0,0,0,0,0,0,0,0],"id":23,"left_children":[1,3,5,7,9,11,-1,13,15,17,19,21,-1,-1,23,25,-1,-1,-1,-1,-1,27,29,-1,31,33,-1,-1,35,-1,-1,37,-1,39,-1,-1,-1,-1,-1,41,-1,-1,-1],"loss_changes":[6.56E5,1.96864E5,3.336E4,2.86816E5,7.5904E4,1.20952E5,0E0,5.056E3,4.0544E4,8.704E3,1.3578E4,8.848E3,0E0,0E0,9.408E3,1.3104E4,0E0,0E0,0E0,0E0,0E0,3.148E4,1.7075E4,0E0,1.284E4,9.408E3,0E0,0E0,2.648E3,0E0,0E0,1.0432E4,0E0,6.768E3,0E0,0E0,0E0,0E0,0E0,1.304E4,0E0,0E0,0E0],"parents":[2147483647,0,0,1,1,2,2,3,3,4,4,5,5,7,7,8,8,9,9,10,10,11,11,14,14,15,15,21,21,22,22,24,24,25,25,28,28,31,31,33,33,39,39],"right_children":[2,4,6,8,10,12,-1,14,16,18,20,22,-1,-1,24,26,-1,-1,-1,-1,-1,28,30,-1,32,34,-1,-1,36,-1,-1,38,-1,40,-1,-1,-1,-1,-1,42,-1,-1,-1],"split_conditions":[4.9495E3,2.875E2,6.8005E3,4.4385E3,4.5055E3,1.568E3,5.8647655E1,3E0,1.805E2,1.645E2,5.2E1,1.45E1,5.99654E1,4.3909134E1,2.865E3,6.5125E3,6.1580692E1,5.3073895E1,4.6522106E1,4.9365658E1,5.6937572E1,3.6975E3,3E3,4.8409874E1,5.3E2,5.035E3,4.6012093E1,5.729654E1,5.204E3,4.8157967E1,5.433498E1,7.014E3,5.286098E1,7.1455E3,5.613098E1,5.6375896E1,5.2673893E1,5.009368E1,4.3618855E1,2.5E2,5.9039528E1,5.2411537E1,5.559573E1],"split_indices":[7,47,5,7,7,6,0,1,1,1,1,65,0,0,19,19,0,0,0,0,0,19,19,0,55,19,0,0,3,0,0,2,0,2,0,0,0,0,0,17,0,0,0],"split_type":[0,0,0,0,0,0,0,0,0,0,0,0,0,0,0,0,0,0,0,0,0,0,0,0,0,0,0,0,0,0,0,0,0,0,0,0,0,0,0,0,0,0,0],"sum_hessian":[7.81E2,7.29E2,5.2E1,1.36E2,5.93E2,3.8E1,1.4E1,5.6E1,8E1,5.82E2,1.1E1,3E1,8E0,1E0,5.5E1,7.9E1,1E0,5.81E2,1E0,1E0,1E1,2.4E1,6E0,1.4E1,4.1E1,7.8E1,1E0,1.1E1,1.3E1,2E0,4E0,3.5E1,6E0,7.4E1,4E0,4E0,9E0,3.4E1,1E0,7.3E1,1E0,6.8E1,5E0],"tree_param":{"num_deleted":"0","num_feature":"82","num_nodes":"43","size_leaf_vector":"0"}},{"base_weights":[1.5974435E3,1.5945026E3,1.6181256E3,1.4948768E3,1.5980397E3,1.5808483E3,1.7609109E3,1.5082128E3,1.3333208E3,1.6323861E3,1.5946062E3,1.5836249E3,1.3423489E3,1.6832836E3,1.7905723E3,1.5322593E3,1.3896908E3,1.615193E3,1.7117883E3,1.5950034E3,1.3262051E3,1.5465782E3,1.6331755E3,1.549165E3,1.3800602E3,1.5952684E3,1.4098375E3,1.3910833E3,1.5651227E3,1.6528158E3,1.4813077E3,1.3838772E3,1.5692316E3,1.8367094E3,1.645707E3,1.5323789E3,1.6630852E3,1.5775298E3,1.3795894E3],"categories":[],"categories_nodes":[],"categories_segments":[],"categories_sizes":[],"default_left":[1,0,0,0,0,0,0,0,0,0,1,0,0,0,0,0,0,0,0,1,0,0,0,0,0,0,0,0,0,0,0,0,0,0,0,0,0,0,0],"id":24,"left_children":[1,3,5,7,9,11,13,15,-1,17,19,21,-1,-1,-1,23,-1,-1,-1,25,-1,27,29,-1,-1,-1,-1,-1,31,33,-1,-1,-1,-1,35,37,-1,-1,-1],"loss_changes":[1.8944E4,2.2592E5,5.09088E5,2.94E4,5.0816E4,2.776E4,1.1692E4,3.966E4,0E0,5.2352E4,4.2112E4,1.16112E5,0E0,0E0,0E0,2.2888E4,0E0,0E0,0E0,3.712E3,0E0,1.06176E5,7.164E4,0E0,0E0,0E0,0E0,0E0,4.096E3,2.448E3,0E0,0E0,0E0,0E0,2.6104E4,1.18E3,0E0,0E0,0E0],"parents":[2147483647,0,0,1,1,2,2,3,3,4,4,5,5,6,6,7,7,9,9,10,10,11,11,15,15,19,19,21,21,22,22,28,28,29,29,34,34,35,35],"right_children":[2,4,6,8,10,12,14,16,-1,18,20,22,-1,-1,-1,24,-1,-1,-1,26,-1,28,30,-1,-1,-1,-1,-1,32,34,-1,-1,-1,-1,36,38,-1,-1,-1],"split_conditions":[3.5E0,4.369E3,7.683E3,5.76E2,4.915E2,1.13E2,2.5E1,1E2,4.3050377E1,4E0,1.01E3,7.2125E3,4.3341877E1,5.4350002E1,5.781415E1,4.949E3,4.4870457E1,5.215149E1,5.5270367E1,1.5615E3,4.282062E1,4.4755E3,1.25E1,5.0019573E1,4.45595E1,5.1508163E1,4.5520954E1,4.4915417E1,4.1415E3,7.2235E3,4.782859E1,4.4682747E1,5.0667484E1,5.930383E1,1.6E1,3.5E0,5.3697838E1,5.0935417E1,4.45443E1],"split_indices":[80,7,9,63,63,70,70,48,0,76,4,9,0,0,0,10,0,0,0,6,0,10,80,0,0,0,0,0,7,9,0,0,0,0,63,73,0,0,0],"split_type":[0,0,0,0,0,0,0,0,0,0,0,0,0,0,0,0,0,0,0,0,0,0,0,0,0,0,0,0,0,0,0,0,0,0,0,0,0,0,0],"sum_hessian":[8.26E2,7.24E2,1.02E2,2.5E1,6.99E2,8.1E1,2.1E1,2.3E1,2E0,6.3E1,6.36E2,8E1,1E0,6E0,1.5E1,1.9E1,4E0,5.2E1,1.1E1,6.35E2,1E0,4.6E1,3.4E1,1.7E1,2E0,6.34E2,1E0,5E0,4.1E1,3E1,4E0,1E0,4E1,1E0,2.9E1,4E0,2.5E1,3E0,1E0],"tree_param":{"num_deleted":"0","num_feature":"82","num_nodes":"39","size_leaf_vector":"0"}},{"base_weights":[1.538363E3,1.5114154E3,1.5425183E3,1.432949E3,1.5451056E3,1.5368339E3,1.6384819E3,1.4527104E3,1.3599739E3,1.5537104E3,1.4718636E3,1.4094873E3,1.5382041E3,1.6147821E3,1.7613568E3,1.5406503E3,1.5968304E3,1.4675647E3,1.3264347E3,1.2335653E3,1.5386588E3,1.5952164E3,1.6961664E3,1.4993804E3,1.6305709E3,1.5381821E3,1.6797798E3,1.4518453E3,1.6064222E3,1.4628284E3,1.5394819E3,1.5058387E3,1.4076853E3,1.6091338E3,1.538774E3],"categories":[],"categories_nodes":[],"categories_segments":[],"categories_sizes":[],"default_left":[0,0,1,0,0,0,0,0,0,0,0,0,0,0,0,0,0,0,0,0,1,0,0,0,0,0,0,0,0,0,0,0,0,0,0],"id":25,"left_children":[1,3,5,7,9,11,13,-1,-1,15,-1,17,19,21,-1,-1,23,-1,-1,-1,25,27,-1,-1,-1,29,-1,-1,-1,31,33,-1,-1,-1,-1],"loss_changes":[6.0032E4,2.53296E5,3.4176E5,2.2108E4,1.88E4,8.6144E4,7.6072E4,0E0,0E0,7.232E3,0E0,1.012E4,6.528E4,1.8032E4,0E0,0E0,1.9596E4,0E0,0E0,0E0,1.152E4,1.3396E4,0E0,0E0,0E0,3.4688E4,0E0,0E0,0E0,3.08E2,6.4E2,0E0,0E0,0E0,0E0],"parents":[2147483647,0,0,1,1,2,2,3,3,4,4,5,5,6,6,9,9,11,11,12,12,13,13,16,16,20,20,21,21,25,25,29,29,30,30],"right_children":[2,4,6,8,10,12,14,-1,-1,16,-1,18,20,22,-1,-1,24,-1,-1,-1,26,28,-1,-1,-1,30,-1,-1,-1,32,34,-1,-1,-1,-1],"split_conditions":[6.65E2,4.347E3,4.7855E3,6.094E3,6.7095E3,1.5065E3,1.5925E3,4.690524E1,4.3910954E1,7E1,4.752366E1,5.75E1,1.25E1,8.75E1,5.687084E1,4.9744648E1,6.8375E3,4.7384853E1,4.2828037E1,3.9829464E1,7.0385E3,6.142E3,5.4765965E1,4.841212E1,5.2648014E1,6.7285E3,5.4236874E1,4.6877308E1,5.1868298E1,5.6E2,6.3305E3,4.862065E1,4.545146E1,5.195585E1,4.9684067E1],"split_indices":[4,7,7,3,3,6,6,0,0,1,0,1,1,1,0,0,2,0,0,0,2,2,0,0,0,9,0,0,0,13,2,0,0,0,0],"split_type":[0,0,0,0,0,0,0,0,0,0,0,0,0,0,0,0,0,0,0,0,0,0,0,0,0,0,0,0,0,0,0,0,0,0,0],"sum_hessian":[7.89E2,1.06E2,6.83E2,3.2E1,7.4E1,6.45E2,3.8E1,2.5E1,7E0,6.6E1,8E0,7E0,6.38E2,3.2E1,6E0,5.1E1,1.5E1,4E0,3E0,1E0,6.37E2,2.6E1,6E0,4E0,1.1E1,6.35E2,2E0,2E0,2.4E1,1.1E1,6.24E2,6E0,5E0,6E0,6.18E2],"tree_param":{"num_deleted":"0","num_feature":"82","num_nodes":"35","size_leaf_vector":"0"}},{"base_weights":[1.4924795E3,1.3748036E3,1.4984882E3,1.3891158E3,1.2934332E3,1.4934062E3,1.578921E3,1.1819238E3,1.3951388E3,1.4903912E3,1.5205358E3,1.5052245E3,1.6229922E3,1.3847168E3,1.4898845E3,1.4911211E3,1.3692734E3,1.5237401E3,1.1942144E3,1.6328397E3,1.4858735E3,1.4275714E3,1.4924089E3,1.654402E3,1.5384814E3,1.536678E3,1.6729713E3,1.6219209E3,1.4042706E3],"categories":[],"categories_nodes":[],"categories_segments":[],"categories_sizes":[],"default_left":[0,0,1,0,0,1,0,0,0,1,0,0,0,0,0,0,0,0,0,0,0,0,0,0,0,0,0,0,0],"id":26,"left_children":[1,3,5,7,-1,9,11,-1,13,15,-1,17,19,-1,-1,21,-1,-1,-1,23,-1,-1,-1,25,27,-1,-1,-1,-1],"loss_changes":[5.40544E5,2.356E4,2.82368E5,2.1116E4,0E0,3.0848E4,1.16464E5,0E0,6.492E3,3.2128E4,0E0,7.5808E4,8.28E3,0E0,0E0,2.6624E4,0E0,0E0,0E0,2.1936E4,0E0,0E0,0E0,1.4636E4,2.8399E4,0E0,0E0,0E0,0E0],"parents":[2147483647,0,0,1,1,2,2,3,3,5,5,6,6,8,8,9,9,11,11,12,12,15,15,19,19,23,23,24,24],"right_children":[2,4,6,8,-1,10,12,-1,14,16,-1,18,20,-1,-1,22,-1,-1,-1,24,-1,-1,-1,26,28,-1,-1,-1,-1],"split_conditions":[4.3195E3,4.815E3,6.8085E3,4.866E3,4.176248E1,5.6325E3,5.743E3,3.8162056E1,3.775E2,4.9875E3,4.909519E1,5.0325E3,1.75E1,4.4709854E1,4.810552E1,2.475E2,4.421122E1,4.919865E1,3.8558895E1,4.185E2,4.7976013E1,4.6093548E1,4.8187027E1,4.696E3,1.5E0,4.961639E1,5.401704E1,5.236872E1,4.534121E1],"split_indices":[7,10,5,8,0,8,8,0,47,10,0,10,71,0,0,63,0,0,0,63,0,0,0,7,0,0,0,0,0],"split_type":[0,0,0,0,0,0,0,0,0,0,0,0,0,0,0,0,0,0,0,0,0,0,0,0,0,0,0,0,0],"sum_hessian":[8E2,3.9E1,7.61E2,3.3E1,6E0,7.16E2,4.5E1,1E0,3.2E1,6.45E2,7.1E1,1.7E1,2.8E1,2.9E1,3E0,6.41E2,4E0,1.6E1,1E0,2.6E1,2E0,1.3E1,6.28E2,2.1E1,5E0,3E0,1.8E1,3E0,2E0],"tree_param":{"num_deleted":"0","num_feature":"82","num_nodes":"29","size_leaf_vector":"0"}},{"base_weights":[1.4389346E3,1.4347272E3,1.4835765E3,1.3631656E3,1.4385392E3,1.4173612E3,1.5492764E3,1.4621974E3,1.3402386E3,1.4367422E3,1.5152198E3,1.3862188E3,1.4687181E3,1.5699572E3,1.4772001E3,1.430121E3,1.6351503E3,1.0909028E3,1.3481041E3,1.4357571E3,1.5684877E3,1.4200535E3,1.6080848E3,1.2330085E3,1.4007806E3,1.4982349E3,1.5895698E3,1.4073875E3,1.5425325E3,1.1442202E3,1.3546516E3,1.4354202E3,1.6471794E3,1.510583E3,1.6627767E3,1.3266555E3,1.4243936E3,1.329355E3,1.3945315E3,1.3450854E3,1.4365951E3,1.5830282E3,1.3484027E3,1.4900205E3,1.3898091E3,1.1844357E3,1.3633372E3,1.434625E3,1.4626672E3,1.4712705E3,1.387003E3,1.4656711E3,1.6804658E3,1.2842434E3,1.4500444E3,1.4555302E3,1.5877245E3,1.4691587E3,1.3800183E3,1.4422538E3,1.5124937E3],"categories":[],"categories_nodes":[],"categories_segments":[],"categories_sizes":[],"default_left":[1,0,0,0,1,0,0,0,0,1,0,0,0,0,0,0,0,0,0,1,0,0,0,0,0,0,0,0,0,0,0,0,0,0,0,0,0,0,0,0,1,0,0,0,0,0,0,0,0,0,0,0,0,0,0,0,0,0,0,0,0],"id":27,"left_children":[1,3,5,7,9,11,13,15,17,19,21,23,-1,25,27,-1,-1,-1,29,31,-1,-1,33,-1,35,-1,-1,-1,-1,-1,37,39,-1,41,-1,-1,43,-1,-1,45,47,-1,-1,-1,-1,-1,-1,-1,49,51,53,55,-1,-1,-1,57,-1,59,-1,-1,-1],"loss_changes":[1.27616E5,1.7984E5,2.7784E5,6.2448E4,7.1296E4,3.1208E4,2.3952E4,1.043E4,4.2908E4,6.2336E4,1.13712E5,2.8076E4,0E0,9.004E3,1.011E4,0E0,0E0,0E0,2.1188E4,2.0352E4,0E0,0E0,1.2146E4,0E0,1.202E4,0E0,0E0,0E0,0E0,0E0,6.7E3,4.9408E4,0E0,9.401E3,0E0,0E0,8.86E3,0E0,0E0,6.761E3,9.344E3,0E0,0E0,0E0,0E0,0E0,0E0,0E0,5.752E3,1.9224E4,9.794E3,2.2632E4,0E0,0E0,0E0,1.4432E4,0E0,1.076E4,0E0,0E0,0E0],"parents":[2147483647,0,0,1,1,2,2,3,3,4,4,5,5,6,6,7,7,8,8,9,9,10,10,11,11,13,13,14,14,18,18,19,19,22,22,24,24,30,30,31,31,33,33,36,36,39,39,40,40,48,48,49,49,50,50,51,51,55,55,57,57],"right_children":[2,4,6,8,10,12,14,16,18,20,22,24,-1,26,28,-1,-1,-1,30,32,-1,-1,34,-1,36,-1,-1,-1,-1,-1,38,40,-1,42,-1,-1,44,-1,-1,46,48,-1,-1,-1,-1,-1,-1,-1,50,52,54,56,-1,-1,-1,58,-1,60,-1,-1,-1],"split_conditions":[5.5E0,4.718E3,4.883E3,5E0,2.5E0,1.15E1,2.5E0,1.5605E3,6.5E0,1.594E3,7.425E3,6.69E3,4.7422096E1,7.12E3,3.5E0,4.617587E1,5.279587E1,3.5223164E1,4.9085E3,7.993E3,5.0643463E1,4.5850807E1,6.9E2,3.9811485E1,5.9E2,4.8375137E1,5.1324165E1,4.5441845E1,4.980542E1,3.694468E1,6.25E2,4.467E3,5.3184273E1,6.3E2,5.3687878E1,4.2835167E1,4.3705E3,4.292233E1,4.5026752E1,4E0,2.15E1,5.111295E1,4.3537342E1,4.810991E1,4.4874275E1,3.824316E1,4.4019547E1,4.6321297E1,6.625E2,5.03E3,8.4E2,1.0125E3,5.4259026E1,4.146576E1,4.681916E1,5.9E1,5.1264584E1,5.9125E3,4.455815E1,4.6567616E1,4.8835526E1],"split_indices":[73,10,10,65,64,65,64,6,65,6,9,9,0,9,64,0,0,0,8,8,0,0,4,0,4,0,0,0,0,0,4,7,0,4,0,0,7,0,0,1,1,0,0,0,0,0,0,0,53,19,53,13,0,0,0,70,0,8,0,0,0],"split_type":[0,0,0,0,0,0,0,0,0,0,0,0,0,0,0,0,0,0,0,0,0,0,0,0,0,0,0,0,0,0,0,0,0,0,0,0,0,0,0,0,0,0,0,0,0,0,0,0,0,0,0,0,0,0,0,0,0,0,0,0,0],"sum_hessian":[8.17E2,7.47E2,7E1,3.8E1,7.09E2,3.5E1,3.5E1,7E0,3.1E1,6.93E2,1.6E1,2.2E1,1.3E1,2.7E1,8E0,6E0,1E0,1E0,3E1,6.88E2,5E0,8E0,8E0,2E0,2E1,6E0,2.1E1,4E0,4E0,1E0,2.9E1,6.87E2,1E0,3E0,5E0,5E0,1.5E1,1.8E1,1.1E1,9E0,6.78E2,2E0,1E0,5E0,1E1,1E0,8E0,6.31E2,4.7E1,4.2E1,5E0,4.1E1,1E0,2E0,3E0,3.8E1,3E0,3.2E1,6E0,2E1,1.2E1],"tree_param":{"num_deleted":"0","num_feature":"82","num_nodes":"61","size_leaf_vector":"0"}},{"base_weights":[1.391212E3,1.3870195E3,1.4502856E3,1.3855295E3,1.5427112E3,1.4172638E3,1.5084324E3,1.3851724E3,1.6310828E3,1.5350667E3,1.4009407E3,1.3483733E3,1.5262849E3,1.3432137E3,1.3899286E3,1.4123727E3,1.2927623E3,1.4622698E3,1.5692639E3,1.3364852E3,1.435282E3,1.430789E3,1.3865175E3,1.3091985E3,1.4245995E3,1.3047633E3,1.3486108E3,1.4344017E3,1.235079E3,1.2489045E3,1.3871661E3,1.4612697E3,1.3715476E3,1.2404987E3,1.3463063E3,1.3447167E3,1.5248156E3,1.4087231E3,1.4614921E3,1.1473302E3,1.4358164E3,1.386751E3,1.6215724E3,1.5554938E3,1.4338817E3,1.1435402E3,1.270438E3,1.348967E3,1.2351649E3,1.4179329E3,1.2902999E3,1.3536063E3,1.1172678E3,1.399376E3,1.0561029E3,1.3713654E3,1.4560168E3,1.3627368E3,1.2147277E3,1.3898868E3,1.171666E3,1.3761167E3,1.3089161E3],"categories":[],"categories_nodes":[],"categories_segments":[],"categories_sizes":[],"default_left":[1,1,0,1,0,0,0,0,0,0,0,0,0,0,0,0,0,0,0,0,0,0,0,0,0,0,0,0,0,0,1,0,0,0,0,0,0,0,0,0,0,0,0,0,0,0,0,0,0,0,0,0,0,0,0,0,0,0,0,0,0,0,0],"id":28,"left_children":[1,3,5,7,-1,9,11,13,-1,-1,15,-1,17,19,21,23,-1,-1,-1,25,-1,27,29,-1,31,33,35,37,-1,39,41,43,-1,45,-1,47,-1,49,-1,-1,-1,-1,-1,-1,-1,-1,-1,51,53,55,-1,57,-1,-1,-1,59,-1,61,-1,-1,-1,-1,-1],"loss_changes":[1.74592E5,1.48224E5,7.5768E4,3.7632E4,0E0,3.9216E4,2.9268E4,1.25568E5,0E0,0E0,1.488E4,0E0,1.8868E4,2.3728E4,6.8864E4,1.1368E4,0E0,0E0,0E0,5.896E3,0E0,1.4496E4,3.392E4,0E0,2.2312E4,3.3088E4,1.004E4,9.72E3,0E0,3.7127E4,3.2256E4,9.004E3,0E0,5.565E3,0E0,2.992E3,0E0,6.096E3,0E0,0E0,0E0,0E0,0E0,0E0,0E0,0E0,0E0,3.3192E4,4.116775E4,1.8272E4,0E0,3.9448E4,0E0,0E0,0E0,2.09E4,0E0,9.76E3,0E0,0E0,0E0,0E0,0E0],"parents":[2147483647,0,0,1,1,2,2,3,3,5,5,6,6,7,7,10,10,12,12,13,13,14,14,15,15,19,19,21,21,22,22,24,24,25,25,26,26,27,27,29,29,30,30,31,31,33,33,35,35,37,37,47,47,48,48,49,49,51,51,55,55,57,57],"right_children":[2,4,6,8,-1,10,12,14,-1,-1,16,-1,18,20,22,24,-1,-1,-1,26,-1,28,30,-1,32,34,36,38,-1,40,42,44,-1,46,-1,48,-1,50,-1,-1,-1,-1,-1,-1,-1,-1,-1,52,54,56,-1,58,-1,-1,-1,60,-1,62,-1,-1,-1,-1,-1],"split_conditions":[6.9965E3,1.593E3,1.95E2,1.905E2,4.981119E1,6.9995E3,5.2E1,5.689E3,5.266454E1,4.9564365E1,1.1E1,4.3536392E1,5.6085E3,1.2275E3,1.45E1,4.839E3,4.174082E1,4.721389E1,5.066853E1,3.3375E3,4.6342506E1,3.8675E3,2.4975E3,4.227151E1,4.0105E3,3.96E2,1.5485E3,1.5115E3,3.9878334E1,4.5E0,7.5E0,1.5065E3,4.4284645E1,1.2E1,4.3469654E1,1.32E3,4.9233376E1,1.2525E3,4.718878E1,3.7045097E1,4.6359764E1,4.4775536E1,5.2357468E1,5.0223915E1,4.6297295E1,3.692272E1,4.102001E1,5.6795E3,5.3195E3,5.8935E3,4.1661316E1,1.05E1,3.607444E1,4.518317E1,3.409954E1,3E0,4.7011997E1,1.45E1,3.922123E1,4.4876785E1,3.7830853E1,4.4432175E1,4.2262398E1],"split_indices":[2,6,47,1,0,2,1,8,0,0,73,0,8,50,65,3,0,0,0,19,0,54,19,0,19,63,6,6,0,0,0,6,0,70,0,53,0,50,0,0,0,0,0,0,0,0,0,8,8,8,0,80,0,0,0,76,0,65,0,0,0,0,0],"split_type":[0,0,0,0,0,0,0,0,0,0,0,0,0,0,0,0,0,0,0,0,0,0,0,0,0,0,0,0,0,0,0,0,0,0,0,0,0,0,0,0,0,0,0,0,0,0,0,0,0,0,0,0,0,0,0,0,0,0,0,0,0,0,0],"sum_hessian":[8.04E2,7.51E2,5.3E1,7.44E2,7E0,3.4E1,1.9E1,7.43E2,1E0,4E0,3E1,2E0,1.7E1,7.6E1,6.67E2,2.7E1,3E0,7E0,1E1,7.1E1,5E0,5.1E1,6.16E2,3E0,2.4E1,2E1,5.1E1,5E1,1E0,3E0,6.13E2,1.4E1,1E1,8E0,1.2E1,5E1,1E0,2.6E1,2.4E1,2E0,1E0,6.12E2,1E0,3E0,1.1E1,2E0,6E0,4.8E1,2E0,2.4E1,2E0,4.7E1,1E0,1E0,1E0,1.1E1,1.3E1,4.4E1,3E0,1E1,1E0,3.5E1,9E0],"tree_param":{"num_deleted":"0","num_feature":"82","num_nodes":"63","size_leaf_vector":"0"}},{"base_weights":[1.350411E3,1.3453434E3,1.4573127E3,1.29821E3,1.3488777E3,1.4278708E3,1.5102809E3,1.2941725E3,1.4980538E3,1.3469004E3,1.4486041E3,1.3978813E3,1.4981504E3,1.0712404E3,1.2981318E3,1.3474166E3,1.1558031E3,1.4920116E3,1.4026829E3,1.3719695E3,1.4776785E3,1.3011139E3,1.1292828E3,1.3482318E3,1.1498319E3,1.2748905E3,1.0228183E3,1.4023397E3,1.1974622E3,1.2089462E3,1.322702E3,1.2802543E3,1.350793E3,1.244141E3,1.0614933E3,1.3357521E3,1.2652952E3,1.114806E3,1.2934696E3,1.3481217E3,1.3970442E3,1.2851979E3,1.4659818E3,1.2914264E3,1.1342897E3,1.3052765E3,1.2253308E3],"categories":[],"categories_nodes":[],"categories_segments":[],"categories_sizes":[],"default_left":[1,0,0,0,1,0,0,0,0,1,0,0,0,0,0,1,0,0,0,0,0,0,0,0,0,0,0,0,0,0,0,0,1,0,0,0,0,0,0,0,0,0,0,0,0,0,0],"id":29,"left_children":[1,3,5,7,9,11,-1,13,-1,15,17,19,-1,-1,21,23,25,-1,-1,27,-1,29,-1,31,-1,-1,-1,-1,-1,33,35,37,39,-1,-1,-1,-1,-1,41,-1,-1,43,-1,45,-1,-1,-1],"loss_changes":[4.20736E5,1.0944E5,3.1464E4,2.0784E4,1.19936E5,2.5108E4,0E0,3.0736E4,0E0,5.1584E4,2.446E3,1.049E4,0E0,0E0,8.8E3,9.6E4,1.5985E4,0E0,0E0,4.8514E4,0E0,8.4024E4,0E0,1.02656E5,0E0,0E0,0E0,0E0,0E0,3.5874E4,1.0896E4,3.9312E4,6.144E4,0E0,0E0,0E0,0E0,0E0,1.1324E4,0E0,0E0,3.792E3,0E0,6.72E2,0E0,0E0,0E0],"parents":[2147483647,0,0,1,1,2,2,3,3,4,4,5,5,7,7,9,9,10,10,11,11,14,14,15,15,16,16,19,19,21,21,23,23,29,29,30,30,31,31,32,32,38,38,41,41,43,43],"right_children":[2,4,6,8,10,12,-1,14,-1,16,18,20,-1,-1,22,24,26,-1,-1,28,-1,30,-1,32,-1,-1,-1,-1,-1,34,36,38,40,-1,-1,-1,-1,-1,42,-1,-1,44,-1,46,-1,-1,-1],"split_conditions":[7.7015E3,6.948E3,6.5E0,2.5E2,4.625E2,6.9765E3,4.876408E1,6.299E3,4.836929E1,7.6765E3,7.242E3,8.978E3,4.837241E1,3.45883E1,6.01E2,2.5E2,5E2,4.81742E1,4.5289944E1,4.375E2,4.771141E1,4.066E3,3.646238E1,4.5575E3,3.712587E1,4.1163773E1,3.3024845E1,4.5278866E1,3.866376E1,6.803E3,1.65E1,4.5395E3,5.5E0,4.0170933E1,3.4273586E1,4.3128876E1,4.085396E1,3.5994953E1,2.8E2,4.352827E1,4.5107883E1,7.95E2,4.7333748E1,4.575E2,3.6624043E1,4.214488E1,3.9563587E1],"split_indices":[9,9,73,23,47,2,0,9,0,9,9,9,0,0,63,33,63,0,0,63,0,7,0,7,0,0,0,0,0,9,65,10,65,0,0,0,0,0,55,0,0,4,0,13,0,0,0],"split_type":[0,0,0,0,0,0,0,0,0,0,0,0,0,0,0,0,0,0,0,0,0,0,0,0,0,0,0,0,0,0,0,0,0,0,0,0,0,0,0,0,0,0,0,0,0,0,0],"sum_hessian":[8.21E2,7.84E2,3.7E1,5.5E1,7.29E2,2.4E1,1.3E1,5.4E1,1E0,7.15E2,1.4E1,1.7E1,7E0,1E0,5.3E1,7.13E2,2E0,7E0,7E0,1.3E1,4E0,5.2E1,1E0,7.1E2,3E0,1E0,1E0,1.1E1,2E0,1E1,4.2E1,2.6E1,6.84E2,8E0,2E0,3.4E1,8E0,2E0,2.4E1,6.47E2,3.7E1,2.3E1,1E0,2.2E1,1E0,1.8E1,4E0],"tree_param":{"num_deleted":"0","num_feature":"82","num_nodes":"47","size_leaf_vector":"0"}},{"base_weights":[1.312068E3,1.3058046E3,1.4107518E3,1.2624832E3,1.3089691E3,1.4166327E3,1.1206418E3,1.2579656E3,1.4749891E3,1.3096449E3,1.2275242E3,1.3942955E3,1.4680277E3,1.2713314E3,1.2016866E3,1.3100134E3,1.0390161E3,1.1569703E3,1.2931187E3,1.4971714E3,1.2851685E3,1.2184176E3,1.304587E3,1.0846847E3,1.229245E3,1.3092832E3,1.4737113E3,1.2077113E3,1.0421866E3,1.3314563E3,1.2689563E3,1.2880206E3,1.1667408E3,1.1824832E3,1.3107345E3,1.3638944E3,1.2464701E3,1.2080015E3,1.0299218E3,1.1333783E3,1.3220519E3,1.3082421E3,1.331869E3,1.4748645E3,1.3079424E3,1.2748486E3,1.3465991E3,1.356934E3,1.2561837E3,1.3474053E3,1.414387E3,1.1656741E3,1.2977655E3],"categories":[],"categories_nodes":[],"categories_segments":[],"categories_sizes":[],"default_left":[1,0,0,0,1,0,0,0,0,1,0,0,0,0,0,1,0,0,0,0,0,0,0,0,0,0,0,0,0,0,0,0,0,0,1,0,0,0,0,0,0,0,0,0,0,0,0,0,0,0,0,0,0],"id":30,"left_children":[1,3,5,7,9,11,-1,13,-1,15,17,-1,19,21,23,25,-1,27,-1,-1,-1,-1,29,-1,31,33,-1,-1,-1,35,-1,-1,37,39,41,-1,-1,-1,-1,-1,-1,43,45,-1,-1,-1,47,49,51,-1,-1,-1,-1],"loss_changes":[4.76544E5,8.3968E4,6.2576E4,2.7344E4,1.9328E4,2.9048E4,0E0,1.9768E4,0E0,5.3376E4,9.605E3,0E0,5.1244E4,5.2812E4,1.6044E4,6.016E4,0E0,2.214E3,0E0,0E0,0E0,0E0,3.376E3,0E0,1.1133E4,1.09312E5,0E0,0E0,0E0,1.7926E4,0E0,0E0,7.496E3,3.6663E4,1.5104E4,0E0,0E0,0E0,0E0,0E0,0E0,7.232E3,3.9592E4,0E0,0E0,0E0,3.2512E4,4.72E3,4.205E3,0E0,0E0,0E0,0E0],"parents":[2147483647,0,0,1,1,2,2,3,3,4,4,5,5,7,7,9,9,10,10,12,12,13,13,14,14,15,15,17,17,22,22,24,24,25,25,29,29,32,32,33,33,34,34,41,41,42,42,46,46,47,47,48,48],"right_children":[2,4,6,8,10,12,-1,14,-1,16,18,-1,20,22,24,26,-1,28,-1,-1,-1,-1,30,-1,32,34,-1,-1,-1,36,-1,-1,38,40,42,-1,-1,-1,-1,-1,-1,44,46,-1,-1,-1,48,50,52,-1,-1,-1,-1],"split_conditions":[7.554E3,3.45E1,2.025E2,7.033E3,2.5E2,6.9965E3,3.618338E1,5.5E0,4.7624577E1,7.056E3,5.516E3,4.5019135E1,6.594E3,4.7E3,5.2905E3,5.248E3,3.354784E1,5.3765E3,4.1752327E1,4.8340797E1,4.149563E1,3.934037E1,1.5185E3,3.5022392E1,4.7605E3,4.177E3,4.7583317E1,3.8994686E1,3.365021E1,3.82E2,4.0972168E1,4.158772E1,6E0,3.94E2,2.005E2,4.403754E1,4.024613E1,3.9004055E1,3.32542E1,3.6594616E1,4.2686523E1,1.5035E3,6.873E3,4.7620552E1,4.2230957E1,4.1162422E1,5.92E3,9.175E2,1.507E3,4.350514E1,4.5667847E1,3.7637383E1,4.1902363E1],"split_indices":[9,1,1,2,33,2,0,80,0,3,3,0,3,10,8,10,0,8,0,0,0,0,6,0,7,7,0,0,0,63,0,0,65,63,63,0,0,0,0,0,0,6,9,0,0,0,8,13,6,0,0,0,0],"split_type":[0,0,0,0,0,0,0,0,0,0,0,0,0,0,0,0,0,0,0,0,0,0,0,0,0,0,0,0,0,0,0,0,0,0,0,0,0,0,0,0,0,0,0,0,0,0,0,0,0,0,0,0,0],"sum_hessian":[8.07E2,7.59E2,4.8E1,5.2E1,7.07E2,4.7E1,1E0,5.1E1,1E0,7.01E2,6E0,3.3E1,1.4E1,4.1E1,1E1,7E2,1E0,3E0,3E0,1.2E1,2E0,1.6E1,2.5E1,2E0,8E0,6.97E2,3E0,2E0,1E0,1.4E1,1.1E1,4E0,4E0,8E0,6.89E2,1E1,4E0,3E0,1E0,6E0,2E0,6.17E2,7.2E1,1E0,6.16E2,1.5E1,5.7E1,5.1E1,6E0,4.4E1,7E0,2E0,4E0],"tree_param":{"num_deleted":"0","num_feature":"82","num_nodes":"53","size_leaf_vector":"0"}},{"base_weights":[1.2633939E3,1.2650449E3,1.2330044E3,1.2662842E3,1.0743082E3,1.2066213E3,1.2641489E3,1.2629727E3,1.3590077E3,1.1034906E3,9.457122E2,1.1889312E3,1.2867887E3,1.2168252E3,1.3272721E3,1.2613448E3,1.3049502E3,1.3540245E3,1.1259755E3,1.2622316E3,1.0492885E3,1.2502963E3,1.3271473E3,1.4856696E3,1.2978875E3,1.2609523E3,1.4373333E3,1.3350636E3,1.170316E3,1.1715546E3,1.2634327E3,1.3254712E3,1.4802393E3,1.2049907E3,1.1400338E3,1.2628027E3,1.3450902E3,1.3565139E3,1.247856E3,1.095021E3,1.2040266E3,1.01505756E3,1.2631525E3,1.4481954E3,1.2707804E3,1.0545262E3,1.1691426E3,1.2616105E3,1.318374E3,1.2619464E3,1.0293998E3,1.2048406E3,1.262991E3,1.3090492E3,1.2620884E3,1.3328683E3,1.1826125E3,1.2623799E3,1.0657188E3,1.2957916E3,1.4137961E3],"categories":[],"categories_nodes":[],"categories_segments":[],"categories_sizes":[],"default_left":[1,1,0,1,0,0,0,1,0,0,0,0,0,0,0,1,0,0,0,1,0,0,0,0,0,0,0,0,0,0,1,0,0,0,0,0,0,0,0,0,0,0,1,0,0,0,0,1,0,0,0,0,0,0,1,0,0,0,0,0,0],"id":31,"left_children":[1,3,5,7,9,11,13,15,-1,-1,-1,-1,-1,-1,17,19,21,23,-1,25,-1,-1,27,-1,-1,29,-1,31,-1,33,35,37,-1,-1,39,41,43,-1,-1,45,-1,-1,47,-1,-1,-1,-1,49,-1,51,-1,-1,53,55,57,59,-1,-1,-1,-1,-1],"loss_changes":[2.1376E4,1.64096E5,1.5948E4,2.12096E5,6.0965E3,1.4004E4,3.7128E4,2.9952E4,0E0,0E0,0E0,0E0,0E0,0E0,2.458E4,1.16608E5,1.2564E4,2.8342E4,0E0,1.35424E5,0E0,0E0,4.576E3,0E0,0E0,1.36832E5,0E0,1.194E3,0E0,3.306E3,1.4208E4,2.0378E4,0E0,0E0,1.2783E4,4.2752E4,1.5993E4,0E0,0E0,3.029E3,0E0,0E0,3.6992E4,0E0,0E0,0E0,0E0,3.5264E4,0E0,2.0544E4,0E0,0E0,6.592E3,1.698E4,1.9712E4,7.734E3,0E0,0E0,0E0,0E0,0E0],"parents":[2147483647,0,0,1,1,2,2,3,3,4,4,5,5,6,6,7,7,14,14,15,15,16,16,17,17,19,19,22,22,25,25,27,27,29,29,30,30,31,31,34,34,35,35,36,36,39,39,42,42,47,47,49,49,52,52,53,53,54,54,55,55],"right_children":[2,4,6,8,10,12,14,16,-1,-1,-1,-1,-1,-1,18,20,22,24,-1,26,-1,-1,28,-1,-1,30,-1,32,-1,34,36,38,-1,-1,40,42,44,-1,-1,46,-1,-1,48,-1,-1,-1,-1,50,-1,52,-1,-1,54,56,58,60,-1,-1,-1,-1,-1],"split_conditions":[1.5E0,5.91E2,3.45E1,2.875E2,2.65E3,5.8235E3,5.694E3,3.45E2,4.3879757E1,3.56296E1,3.0535236E1,3.838831E1,4.1547943E1,3.9288956E1,1E3,2.5E2,6.9945E3,6.6115E3,3.635559E1,9.1E2,3.3879517E1,4.0369675E1,1.3E1,4.7969425E1,4.19063E1,5.3955E3,4.640874E1,1.1225E3,3.7787266E1,1.5E0,8.775E2,2.5E2,4.779409E1,3.8906845E1,6.699E3,2E0,6.1E1,4.3799236E1,4.029088E1,4.278E3,3.8875713E1,3.2774265E1,5.05E3,4.6759457E1,4.1031067E1,3.4048634E1,3.7749374E1,8.175E2,4.2567772E1,4.7555E3,3.3237347E1,3.8901997E1,5.75E2,1.475E2,7.175E2,4.5E0,3.8184296E1,4.075983E1,3.441002E1,4.183863E1,4.564877E1],"split_indices":[78,63,1,47,54,8,8,55,0,0,0,0,0,0,49,33,2,2,0,53,0,0,64,0,0,8,0,13,0,0,13,13,0,0,2,1,1,0,0,7,0,0,7,0,0,0,0,13,0,10,0,0,4,18,53,65,0,0,0,0,0],"split_type":[0,0,0,0,0,0,0,0,0,0,0,0,0,0,0,0,0,0,0,0,0,0,0,0,0,0,0,0,0,0,0,0,0,0,0,0,0,0,0,0,0,0,0,0,0,0,0,0,0,0,0,0,0,0,0,0,0,0,0,0,0],"sum_hessian":[8.06E2,7.64E2,4.2E1,7.59E2,5E0,2.3E1,1.9E1,7.33E2,2.6E1,4E0,1E0,1.9E1,4E0,1.1E1,8E0,7.06E2,2.7E1,7E0,1E0,7.03E2,3E0,8E0,1.9E1,2E0,5E0,6.98E2,5E0,1.8E1,1E0,1.9E1,6.79E2,1.7E1,1E0,9E0,1E1,6.74E2,5E0,1.2E1,5E0,6E0,4E0,1E0,6.73E2,2E0,3E0,4E0,2E0,6.55E2,1.8E1,6.54E2,1E0,1.2E1,6.42E2,1.2E1,6.3E2,1E1,2E0,6.29E2,1E0,7E0,3E0],"tree_param":{"num_deleted":"0","num_feature":"82","num_nodes":"61","size_leaf_vector":"0"}},{"base_weights":[1.22427E3,1.2181699E3,1.2648503E3,1.1512218E3,1.2208309E3,1.2564749E3,1.342794E3,1.0897198E3,1.192644E3,1.168332E3,1.2237709E3,1.1683413E3,1.2797837E3,1.2595516E3,1.422776E3,1.1369989E3,1.0480986E3,1.1518398E3,1.2161864E3,1.3226602E3,1.2228066E3,1.0046516E3,1.1858378E3,1.2636405E3,1.3432799E3,1.3452538E3,1.1980342E3,1.222144E3,1.3027305E3,1.1947562E3,1.0216806E3,1.223101E3,1.3197732E3,1.358266E3,1.1196655E3,1.2228777E3,1.1701829E3,1.2030181E3,1.0496918E3,1.2308733E3,1.0881881E3,1.3042662E3,1.4277626E3,1.2401564E3,1.1600132E3,1.3445175E3,1.2625737E3,1.2458754E3,1.0669678E3,1.0268497E3,1.2000725E3],"categories":[],"categories_nodes":[],"categories_segments":[],"categories_sizes":[],"default_left":[1,0,0,0,0,0,0,0,0,0,0,0,0,0,0,0,0,0,0,0,1,0,0,0,0,0,0,1,0,0,0,0,0,0,0,0,0,0,0,0,0,0,0,0,0,0,0,0,0,0,0],"id":32,"left_children":[1,3,5,7,9,11,13,15,-1,17,19,21,23,-1,-1,-1,-1,-1,25,-1,27,-1,29,31,33,-1,-1,35,-1,37,-1,39,41,-1,-1,-1,-1,-1,-1,43,-1,45,-1,47,49,-1,-1,-1,-1,-1,-1],"loss_changes":[1.80736E5,1.0784E5,4.8016E4,5.2988E4,8.6656E4,1.76976E5,4.4836E4,7.154E3,0E0,1.136E4,4.1152E4,4.2802E4,5.6224E4,0E0,0E0,0E0,0E0,0E0,1.489E3,0E0,1.408E4,0E0,1.1504E4,1.16904E5,3.1788E4,0E0,0E0,6.464E3,0E0,5.008E3,0E0,2.0404E4,1.9212E4,0E0,0E0,0E0,0E0,0E0,0E0,4.192E3,0E0,1.6272E4,0E0,1.2548E4,6.3935E3,0E0,0E0,0E0,0E0,0E0,0E0],"parents":[2147483647,0,0,1,1,2,2,3,3,4,4,5,5,6,6,7,7,9,9,10,10,11,11,12,12,18,18,20,20,22,22,23,23,24,24,27,27,29,29,31,31,32,32,39,39,41,41,43,43,44,44],"right_children":[2,4,6,8,10,12,14,16,-1,18,20,22,24,-1,-1,-1,-1,-1,26,-1,28,-1,30,32,34,-1,-1,36,-1,38,-1,40,42,-1,-1,-1,-1,-1,-1,44,-1,46,-1,48,50,-1,-1,-1,-1,-1,-1],"split_conditions":[5.623E3,3.3475E3,6E0,4.2125E3,4.4995E3,4.5575E3,5.3305E3,5.2525E3,3.8508194E1,4.25E2,5E-1,2.485E2,6.1995E3,4.066851E1,4.5938713E1,3.6711517E1,3.38411E1,3.7190704E1,6.703E3,4.2706165E1,6.798E3,3.243828E1,4.4625E3,6.7675E3,6.9825E3,4.343567E1,3.868223E1,6.757E3,4.206267E1,2.55E1,3.298811E1,7.675E2,6.9435E3,4.385581E1,3.6151855E1,3.948438E1,3.7782963E1,3.884315E1,3.3892536E1,5.9765E3,3.513551E1,5.8155E3,4.609972E1,1.545E3,1.5E0,4.3411896E1,4.076609E1,4.022693E1,3.4450348E1,3.315501E1,3.8748043E1],"split_indices":[8,19,76,7,7,7,7,8,0,63,65,63,8,0,0,0,0,0,5,0,5,0,19,5,19,0,0,5,0,65,0,53,5,0,0,0,0,0,0,8,0,8,0,6,0,0,0,0,0,0,0],"split_type":[0,0,0,0,0,0,0,0,0,0,0,0,0,0,0,0,0,0,0,0,0,0,0,0,0,0,0,0,0,0,0,0,0,0,0,0,0,0,0,0,0,0,0,0,0,0,0,0,0,0,0],"sum_hessian":[8.06E2,7.01E2,1.05E2,2.7E1,6.74E2,9.5E1,1E1,1.1E1,1.6E1,3.6E1,6.38E2,2E1,7.5E1,5E0,5E0,5E0,6E0,2.7E1,9E0,6E0,6.32E2,2E0,1.8E1,6E1,1.5E1,1E0,8E0,6.27E2,5E0,1.7E1,1E0,3.5E1,2.5E1,1.4E1,1E0,6.18E2,9E0,1.6E1,1E0,3.3E1,2E0,2.2E1,3E0,2.9E1,4E0,1.1E1,1.1E1,2.8E1,1E0,1E0,3E0],"tree_param":{"num_deleted":"0","num_feature":"82","num_nodes":"51","size_leaf_vector":"0"}},{"base_weights":[1.1863596E3,1.1407659E3,1.1908374E3,1.1085815E3,1.1661682E3,1.1865936E3,1.225132E3,9.325563E2,1.1138915E3,1.081589E3,1.1807017E3,1.1861252E3,1.330278E3,1.2331606E3,1.1020005E3,1.1192625E3,9.412419E2,1.1699493E3,1.2866333E3,1.1866104E3,1.121014E3,1.2247225E3,1.3018619E3,1.1105426E3,1.2338838E3,1.1545986E3,1.2058633E3,1.1860634E3,1.2980262E3,1.210709E3,1.3425297E3,1.2135183E3,1.3517931E3,1.1166401E3,9.3446277E2,1.0994763E3,1.1744181E3,1.1862628E3,1.0459176E3,1.213515E3,1.0325526E3,1.3935779E3,1.2691104E3,1.1262588E3,9.903207E2,1.0020142E3,1.1450198E3,1.01915784E3,1.1865052E3,1.1937025E3,1.2761058E3,1.1123314E3,1.1791324E3,1.1860977E3,1.2676409E3,1.1540522E3,1.2383224E3,1.2060309E3,1.3026359E3,1.12507E3,9.915727E2,1.1382236E3,1.2295027E3,1.1566514E3,1.2566979E3,1.2672124E3,1.0094555E3,8.7916486E2,1.0920564E3,1.2780155E3,1.0703468E3,9.89089E2,1.2082832E3,1.2302694E3,1.302562E3],"categories":[],"categories_nodes":[],"categories_segments":[],"categories_sizes":[],"default_left":[0,0,1,0,0,1,0,0,0,0,0,1,0,0,0,0,0,0,0,1,0,0,0,0,0,0,0,1,0,0,0,0,0,0,0,0,0,0,0,0,0,0,0,0,0,0,0,0,1,0,0,0,0,0,0,0,0,0,0,0,0,0,0,0,0,0,0,0,0,0,0,0,0,0,0],"id":33,"left_children":[1,3,5,7,9,11,13,-1,15,-1,17,19,-1,21,-1,23,-1,25,-1,27,-1,29,31,33,-1,35,-1,37,-1,39,41,-1,-1,43,-1,45,-1,47,-1,49,-1,-1,-1,51,-1,-1,-1,-1,53,55,57,59,-1,-1,-1,61,63,65,-1,-1,67,-1,69,71,73,-1,-1,-1,-1,-1,-1,-1,-1,-1,-1],"loss_changes":[1.472E5,4.3128E4,8.8448E4,1.7268E4,3.3636E4,2.464E4,6.2544E4,0E0,1.5928E4,0E0,2.0408E4,4.224E3,0E0,2.4072E4,0E0,1.3304E4,0E0,1.4E2,0E0,2.048E4,0E0,9.084E4,1.5365E4,1.736E4,0E0,8.322E3,0E0,2.816E3,0E0,1.4736E4,4.746E3,0E0,0E0,1.9236E4,0E0,1.2711E4,0E0,1.1136E4,0E0,5.4624E4,0E0,0E0,0E0,2.446E3,0E0,0E0,0E0,0E0,2.752E3,6.2236E4,6.918E3,1.7194E4,0E0,0E0,0E0,1.1632E4,1.3832E4,3.26735E4,0E0,0E0,1.1031875E4,0E0,1.4319E4,2.0155E4,1.106E3,0E0,0E0,0E0,0E0,0E0,0E0,0E0,0E0,0E0,0E0],"parents":[2147483647,0,0,1,1,2,2,3,3,4,4,5,5,6,6,8,8,10,10,11,11,13,13,15,15,17,17,19,19,21,21,22,22,23,23,25,25,27,27,29,29,30,30,33,33,35,35,37,37,39,39,43,43,48,48,49,49,50,50,51,51,55,55,56,56,57,57,60,60,62,62,63,63,64,64],"right_children":[2,4,6,8,10,12,14,-1,16,-1,18,20,-1,22,-1,24,-1,26,-1,28,-1,30,32,34,-1,36,-1,38,-1,40,42,-1,-1,44,-1,46,-1,48,-1,50,-1,-1,-1,52,-1,-1,-1,-1,54,56,58,60,-1,-1,-1,62,64,66,-1,-1,68,-1,70,72,74,-1,-1,-1,-1,-1,-1,-1,-1,-1,-1],"split_conditions":[4.783E3,3.555E2,3.18E2,5.955E3,6.686E3,5E0,1.15E1,3.0110456E1,7.0135E3,3.492244E1,2E2,2.1545E3,4.295213E1,4.625E2,3.5581486E1,1.35E1,3.0390898E1,1.5195E3,4.1542927E1,7.0115E3,3.6195396E1,1.5945E3,6.786E3,7.0535E3,3.9839745E1,4.8465E3,3.8935017E1,7.3375E3,4.191078E1,3.8675E3,5.6705E3,3.9182182E1,4.3646812E1,9.5E0,3.0172014E1,4.2535E3,3.7919712E1,4.202E3,3.3770676E1,4.625E2,3.3339146E1,4.499596E1,4.0977142E1,5.45E1,3.197556E1,3.2353123E1,3.6970497E1,3.2906654E1,6.05E1,6.95E2,1.506E3,1.5215E3,3.807193E1,3.829682E1,4.0929695E1,5.5E2,2.5E0,1.5035E3,4.205962E1,3.6326355E1,4.2245E3,3.675106E1,4.7715E3,4.3735E3,4.957E3,4.0915863E1,3.2593388E1,2.838655E1,3.526041E1,4.1264675E1,3.455945E1,3.193579E1,3.9013153E1,3.9723045E1,4.2057236E1],"split_indices":[10,63,63,2,2,79,64,0,2,0,28,50,0,50,0,73,0,6,0,5,0,6,5,3,0,3,0,3,0,54,3,0,0,80,0,7,0,7,0,47,0,0,0,1,0,0,0,0,1,4,6,6,0,0,0,28,73,6,0,0,7,0,7,7,7,0,0,0,0,0,0,0,0,0,0],"split_type":[0,0,0,0,0,0,0,0,0,0,0,0,0,0,0,0,0,0,0,0,0,0,0,0,0,0,0,0,0,0,0,0,0,0,0,0,0,0,0,0,0,0,0,0,0,0,0,0,0,0,0,0,0,0,0,0,0,0,0,0,0,0,0,0,0,0,0,0,0,0,0,0,0,0,0],"sum_hessian":[8.02E2,7.2E1,7.3E2,3.2E1,4E1,6.5E2,8E1,1E0,3.1E1,6E0,3.4E1,6.48E2,2E0,7.5E1,5E0,3E1,1E0,3.1E1,3E0,6.43E2,5E0,6.7E1,8E0,2.8E1,2E0,2.2E1,9E0,6.4E2,3E0,6E1,7E0,3E0,5E0,2.7E1,1E0,6E0,1.6E1,6.39E2,1E0,5.9E1,1E0,4E0,3E0,2.5E1,2E0,2E0,4E0,1E0,6.38E2,4.5E1,1.4E1,2E1,5E0,6.35E2,3E0,2.4E1,2.1E1,4E0,1E1,1.8E1,2E0,2E1,4E0,4E0,1.7E1,3E0,1E0,1E0,1E0,3E0,1E0,1E0,3E0,1.1E1,6E0],"tree_param":{"num_deleted":"0","num_feature":"82","num_nodes":"75","size_leaf_vector":"0"}},{"base_weights":[1.144114E3,1.1416897E3,1.2127671E3,1.1374591E3,1.2175903E3,1.152088E3,1.2456765E3,1.1154174E3,1.1423076E3,1.2226086E3,9.99614E2,1.1697413E3,9.810524E2,1.195096E3,1.284639E3,1.1140815E3,1.2815017E3,1.1419271E3,1.3612728E3,1.2265837E3,1.0507654E3,1.1198785E3,1.2068154E3,1.0774193E3,1.1494849E3,1.1421166E3,1.0125526E3,1.311692E3,1.2013699E3,1.0853678E3,1.01723914E3,9.12792E2,1.1528016E3,1.1414681E3,1.1966372E3,1.3270422E3,1.1744105E3,1.0461113E3,1.2061189E3,1.0901805E3,9.424408E2,1.2155162E3,1.116973E3,1.0584615E3,1.124931E3,1.2290746E3,1.039628E3,9.591723E2,1.1895942E3,9.0280774E2,1.0634479E3,1.1192518E3,1.2573588E3,1.2345046E3,1.0854736E3,1.0706578E3,8.5111945E2,1.1001233E3,1.153849E3,1.1900983E3,1.2557865E3,1.082491E3,1.0251661E3,1.0349446E3,1.126205E3,1.2080449E3,1.0514564E3,1.3135383E3,1.228113E3,1.0470132E3,9.046532E2],"categories":[],"categories_nodes":[],"categories_segments":[],"categories_sizes":[],"default_left":[1,1,0,0,0,0,0,0,1,0,0,0,0,0,0,0,0,1,0,0,0,0,0,0,0,1,0,0,0,0,0,0,0,0,0,0,0,0,0,0,0,0,0,0,0,0,0,0,0,0,0,0,0,0,0,0,0,0,0,0,0,0,0,0,0,0,0,0,0,0,0],"id":34,"left_children":[1,3,5,7,9,11,13,15,17,19,-1,21,-1,-1,-1,23,-1,25,-1,27,-1,-1,-1,29,31,33,-1,35,37,39,-1,-1,-1,-1,-1,-1,-1,-1,41,43,-1,45,47,49,51,53,-1,-1,-1,-1,55,57,-1,59,-1,61,-1,63,-1,65,67,-1,69,-1,-1,-1,-1,-1,-1,-1,-1],"loss_changes":[1.20832E5,2.39744E5,3.846E4,6.5344E4,3.1068E4,1.6252E4,1.6802E4,1.3008E4,3.2704E4,1.232E4,0E0,2E2,0E0,0E0,0E0,1.61472E5,0E0,1.088E3,0E0,6.6672E4,0E0,0E0,0E0,1.8616E4,4.1352E4,5.248E3,0E0,1.3E1,7.5E3,2.808E4,0E0,0E0,0E0,0E0,0E0,0E0,0E0,0E0,8.604E3,4.8336E4,0E0,4.8852E4,2.062E4,1.1596E4,3.18E3,3.188E3,0E0,0E0,0E0,0E0,3.3312E4,1.754E3,0E0,4.492E3,0E0,1.56E3,0E0,1.4724E4,0E0,4.465E3,5.944E3,0E0,4.2905E3,0E0,0E0,0E0,0E0,0E0,0E0,0E0,0E0],"parents":[2147483647,0,0,1,1,2,2,3,3,4,4,5,5,6,6,7,7,8,8,9,9,11,11,15,15,17,17,19,19,23,23,24,24,25,25,27,27,28,28,29,29,38,38,39,39,41,41,42,42,43,43,44,44,45,45,50,50,51,51,53,53,55,55,57,57,59,59,60,60,62,62],"right_children":[2,4,6,8,10,12,14,16,18,20,-1,22,-1,-1,-1,24,-1,26,-1,28,-1,-1,-1,30,32,34,-1,36,38,40,-1,-1,-1,-1,-1,-1,-1,-1,42,44,-1,46,48,50,52,54,-1,-1,-1,-1,56,58,-1,60,-1,62,-1,64,-1,66,68,-1,70,-1,-1,-1,-1,-1,-1,-1,-1],"split_conditions":[2.875E2,7.7015E3,6.9985E3,5.46E2,3.8675E3,1.645E2,6.05E1,2.5E2,8.5E0,2E1,3.2275623E1,5E0,3.1676306E1,3.858736E1,4.1478535E1,4.8005E3,4.1377235E1,6.5E0,4.3952892E1,5.8645E3,3.3927204E1,3.6158733E1,3.896576E1,8.55E1,2E0,1.517E3,3.2693386E1,1.72E2,5.5E0,3.85E2,3.2844704E1,2.9472305E1,3.722176E1,3.685582E1,3.8637123E1,4.2847652E1,3.7919468E1,3.377693E1,8.05E2,3.74E2,3.042961E1,4.71E2,2.45E2,4.3645E3,2E2,1.17E3,3.35676E1,3.0969837E1,3.840972E1,2.9149933E1,1.32E3,6.7515E3,4.0597706E1,6.703E3,3.5047867E1,6.771E3,2.7481018E1,6.687E3,3.7255577E1,3.875E2,6.6695E3,3.495156E1,7.5E0,3.3416378E1,3.6363003E1,3.900546E1,3.3949516E1,4.2411636E1,3.965342E1,3.3806053E1,2.920952E1],"split_indices":[47,9,2,50,54,1,70,23,78,67,0,71,0,0,0,10,0,78,0,8,0,0,0,1,1,6,0,1,1,48,0,0,0,0,0,0,0,0,53,63,0,63,63,10,28,50,0,0,0,0,53,5,0,5,0,2,0,2,0,13,2,0,67,0,0,0,0,0,0,0,0],"split_type":[0,0,0,0,0,0,0,0,0,0,0,0,0,0,0,0,0,0,0,0,0,0,0,0,0,0,0,0,0,0,0,0,0,0,0,0,0,0,0,0,0,0,0,0,0,0,0,0,0,0,0,0,0,0,0,0,0,0,0,0,0,0,0,0,0,0,0,0,0,0,0],"sum_hessian":[8.27E2,7.99E2,2.8E1,7.57E2,4.2E1,1E1,1.8E1,1.37E2,6.2E2,4.1E1,1E0,9E0,1E0,8E0,1E1,1.36E2,1E0,6.19E2,1E0,4E1,1E0,4E0,5E0,6.7E1,6.9E1,6.18E2,1E0,9E0,3.1E1,5.9E1,8E0,1E0,6.8E1,6.11E2,7E0,8E0,1E0,1E0,3E1,5.7E1,2E0,2.7E1,3E0,3E1,2.7E1,2.5E1,2E0,1E0,2E0,1E0,2.9E1,2.6E1,1E0,2.4E1,1E0,2.8E1,1E0,1.7E1,9E0,8E0,1.6E1,2.2E1,6E0,5E0,1.2E1,7E0,1E0,5E0,1.1E1,5E0,1E0],"tree_param":{"num_deleted":"0","num_feature":"82","num_nodes":"71","size_leaf_vector":"0"}},{"base_weights":[1.1059669E3,1.0101259E3,1.1085055E3,1.0251356E3,9.162893E2,1.1061051E3,1.1914225E3,1.0333937E3,8.7400806E2,1.1036715E3,1.2124583E3,1.2088395E3,1.0109939E3,9.489206E2,1.0584734E3,1.1046671E3,9.964037E2,1.2294816E3,9.2857465E2,1.1175101E3,1.2182253E3,1.1022172E3,1.1327953E3,1.0596648E3,9.0811426E2,1.2528242E3,1.0594932E3,1.0108415E3,1.2107415E3,1.380387E3,1.2077058E3,1.04604E3,1.1050497E3,1.1357493E3,9.498721E2,9.564274E2,8.011471E2,1.2790085E3,1.0889326E3,1.0581661E3,9.209923E2,1.1055559E3,1.0485789E3,1.1281111E3,1.2137772E3,9.677262E2,1.1970449E3,1.081722E3,1.00181573E3,9.642258E2,8.239687E2,1.1046305E3,1.1462037E3,9.860014E2,1.1670128E3,1.1483353E3,1.1049122E3,1.2875911E3,1.1595647E3,9.836806E2,1.1333239E3,1.1044008E3,1.234139E3,1.0302021E3,1.176667E3,8.460934E2,1.0290297E3,1.0605922E3,1.1249951E3,9.975458E2,8.757947E2,1.1039567E3,1.1702292E3,1.1904132E3,1.0265436E3,1.1043345E3,9.802983E2],"categories":[],"categories_nodes":[],"categories_segments":[],"categories_sizes":[],"default_left":[0,0,1,0,0,1,0,0,0,1,0,0,0,0,0,1,0,0,0,0,0,0,0,0,0,0,0,0,0,0,0,0,1,0,0,0,0,0,0,0,0,1,0,0,0,0,0,0,0,0,0,1,0,0,0,0,0,0,0,0,0,1,0,0,0,0,0,0,0,0,0,1,0,0,0,0,0],"id":35,"left_children":[1,3,5,7,-1,9,11,13,-1,15,17,19,-1,-1,-1,21,23,25,-1,27,29,31,33,-1,35,37,-1,-1,-1,-1,-1,39,41,43,-1,-1,-1,-1,45,47,49,51,53,55,57,-1,-1,-1,59,-1,-1,61,63,65,-1,-1,67,-1,-1,69,-1,71,-1,-1,73,-1,-1,-1,-1,-1,-1,75,-1,-1,-1,-1,-1],"loss_changes":[1.83296E5,1.8152E4,1.408E5,1.1474E4,0E0,1.82016E5,5.4288E4,2.3806E4,0E0,6.6496E4,6.8308E4,5.74E2,0E0,0E0,0E0,3.5904E4,2.7442E4,4.7372E4,0E0,5.10425E3,1.0426E4,9.4592E4,1.8744E4,0E0,6.23025E3,4.3172E4,0E0,0E0,0E0,0E0,0E0,3.8184E4,4.544E3,1.7896E4,0E0,0E0,0E0,0E0,1.22575E4,2.6636E4,2.95475E3,8.832E3,3.05425E4,9.424E3,1.874E3,0E0,0E0,0E0,7.915E3,0E0,0E0,2.112E3,3.4752E4,1.3546E4,0E0,0E0,7.73E3,0E0,0E0,1.341E3,0E0,2.688E3,0E0,0E0,7.841E3,0E0,0E0,0E0,0E0,0E0,0E0,1.6E4,0E0,0E0,0E0,0E0,0E0],"parents":[2147483647,0,0,1,1,2,2,3,3,5,5,6,6,7,7,9,9,10,10,11,11,15,15,16,16,17,17,19,19,20,20,21,21,22,22,24,24,25,25,31,31,32,32,33,33,38,38,39,39,40,40,41,41,42,42,43,43,44,44,48,48,51,51,52,52,53,53,56,56,59,59,61,61,64,64,71,71],"right_children":[2,4,6,8,-1,10,12,14,-1,16,18,20,-1,-1,-1,22,24,26,-1,28,30,32,34,-1,36,38,-1,-1,-1,-1,-1,40,42,44,-1,-1,-1,-1,46,48,50,52,54,56,58,-1,-1,-1,60,-1,-1,62,64,66,-1,-1,68,-1,-1,70,-1,72,-1,-1,74,-1,-1,-1,-1,-1,-1,76,-1,-1,-1,-1,-1],"split_conditions":[4.5175E3,1.1E1,1.95E2,2.015E3,2.9585228E1,4E0,2.55E1,4.96E3,2.8220047E1,5.56E2,4.8425E3,3.245E2,3.264306E1,3.063883E1,3.417608E1,3.05E1,3.2E1,3E0,2.9981897E1,7.45E2,5.5E2,4.8045E3,5E2,3.4214546E1,5.0695E3,6.7745E3,3.4209007E1,3.2638138E1,3.9092525E1,4.4570053E1,3.8994507E1,6.875E2,6.8155E3,1.1E1,3.066955E1,3.088121E1,2.5867506E1,4.1296738E1,6.8165E3,3.5E0,2.645E2,3.59E2,1.5E0,4.9E1,3E0,3.1246027E1,3.8650288E1,3.4926735E1,5.25E2,3.1133007E1,2.6604372E1,6.757E3,4.92E3,6.914E3,3.768061E1,3.707755E1,5.1445E3,4.157385E1,3.7440125E1,7.004E3,3.6592857E1,6.8675E3,3.984799E1,3.3263256E1,2.5E2,2.7318735E1,3.32254E1,3.424449E1,3.632394E1,3.2208843E1,2.8277733E1,4.55E2,3.7784462E1,3.8436165E1,3.3145126E1,3.5656845E1,3.1651955E1],"split_indices":[10,72,47,54,0,76,65,3,0,63,19,63,0,0,0,70,70,68,0,4,4,10,51,0,10,3,0,0,0,0,0,53,3,80,0,0,0,0,3,72,63,63,72,70,72,0,0,0,22,0,0,3,3,3,0,0,3,0,0,3,0,2,0,0,40,0,0,0,0,0,0,13,0,0,0,0,0],"split_type":[0,0,0,0,0,0,0,0,0,0,0,0,0,0,0,0,0,0,0,0,0,0,0,0,0,0,0,0,0,0,0,0,0,0,0,0,0,0,0,0,0,0,0,0,0,0,0,0,0,0,0,0,0,0,0,0,0,0,0,0,0,0,0,0,0,0,0,0,0,0,0,0,0,0,0,0,0],"sum_hessian":[8.09E2,2.1E1,7.88E2,1.8E1,3E0,7.66E2,2.2E1,1.7E1,1E0,7.49E2,1.7E1,2E1,2E0,4E0,1.3E1,7.42E2,7E0,1.6E1,1E0,2E0,1.8E1,6.83E2,5.9E1,4E0,3E0,1.4E1,2E0,1E0,1E0,1E0,1.7E1,3.3E1,6.5E2,5.8E1,1E0,2E0,1E0,1.2E1,2E0,3E1,3E0,6.44E2,6E0,5.3E1,5E0,1E0,1E0,2.1E1,9E0,2E0,1E0,6.3E2,1.4E1,4E0,2E0,2.8E1,2.5E1,2E0,3E0,8E0,1E0,6.29E2,1E0,3E0,1.1E1,1E0,3E0,8E0,1.7E1,7E0,1E0,6.25E2,4E0,1E1,1E0,6.23E2,2E0],"tree_param":{"num_deleted":"0","num_feature":"82","num_nodes":"77","size_leaf_vector":"0"}},{"base_weights":[1.0708158E3,1.0692717E3,1.1058445E3,1.0398671E3,1.0732823E3,1.091701E3,1.2469918E3,1.0370927E3,1.2823103E3,1.072123E3,1.1697631E3,1.0991049E3,8.590414E2,1.0405415E3,9.574327E2,1.0704711E3,1.1810386E3,1.1037007E3,9.541535E2,1.031094E3,1.1344861E3,1.0709685E3,9.563112E2,1.2356548E3,1.0956146E3,1.0831425E3,1.1663204E3,1.0242738E3,1.1320228E3,1.1003137E3,1.2297279E3,1.0701378E3,1.1470667E3,1.0559125E3,1.1729355E3,9.88233E2,1.0708542E3,9.433999E2,1.0712864E3,9.938321E2,1.0683406E3,1.1130781E3,1.2554465E3,9.930697E2,7.755905E2,1.0801257E3,1.0164372E3,1.0705958E3,1.2157605E3,9.867748E2,1.0496968E3,1.1407743E3,9.2927124E2,1.0713613E3,9.69628E2,9.7640204E2,1.0188341E3,8.191028E2,1.00465985E3,8.461272E2,9.80685E2,1.0380829E3,9.455912E2,9.9824927E2,9.562782E2,9.651866E2,8.478566E2,9.8094653E2,7.9768384E2],"categories":[],"categories_nodes":[],"categories_segments":[],"categories_sizes":[],"default_left":[1,0,0,0,1,0,0,0,0,1,0,0,0,0,0,1,0,0,0,0,0,1,0,0,0,0,0,0,0,0,0,0,0,0,0,0,0,0,1,0,0,0,0,0,0,0,0,1,0,0,0,0,0,0,0,0,0,0,0,0,0,0,0,0,0,0,0,0,0],"id":36,"left_children":[1,3,5,7,9,11,-1,13,-1,15,-1,17,-1,19,-1,21,23,25,-1,27,29,31,-1,-1,-1,33,-1,35,-1,-1,-1,37,-1,39,41,43,45,-1,47,-1,-1,-1,-1,49,-1,-1,51,53,-1,55,-1,-1,-1,-1,57,59,61,-1,-1,-1,63,-1,-1,-1,65,67,-1,-1,-1],"loss_changes":[2.9632E4,7.8336E4,5.1316E4,4.7056E4,6.144E4,4.1924E4,0E0,1.34E4,0E0,1.06624E5,0E0,7.164E3,0E0,6.476E4,0E0,2.5472E4,3.0225E4,2.196E4,0E0,4.164E4,9.596E3,2.7008E4,0E0,0E0,0E0,3.8736E4,0E0,1.1472E5,0E0,0E0,0E0,8.352E4,0E0,1.92E2,7.736E3,3.4848E4,3.28E3,0E0,4.9216E4,0E0,0E0,0E0,0E0,2.36E3,0E0,0E0,4.1408E4,3.7504E4,0E0,5.24E2,0E0,0E0,0E0,0E0,1.6404E4,6.076E3,7.48E2,0E0,0E0,0E0,3.8E2,0E0,0E0,0E0,1.632E3,1.9535E4,0E0,0E0,0E0],"parents":[2147483647,0,0,1,1,2,2,3,3,4,4,5,5,7,7,9,9,11,11,13,13,15,15,16,16,17,17,19,19,20,20,21,21,25,25,27,27,31,31,33,33,34,34,35,35,36,36,38,38,43,43,46,46,47,47,49,49,54,54,55,55,56,56,60,60,64,64,65,65],"right_children":[2,4,6,8,10,12,-1,14,-1,16,-1,18,-1,20,-1,22,24,26,-1,28,30,32,-1,-1,-1,34,-1,36,-1,-1,-1,38,-1,40,42,44,46,-1,48,-1,-1,-1,-1,50,-1,-1,52,54,-1,56,-1,-1,-1,-1,58,60,62,-1,-1,-1,64,-1,-1,-1,66,68,-1,-1,-1],"split_conditions":[7.65E2,6.9585E3,7.0015E3,8.5E1,5E0,1.5E1,4.0262978E1,3.275E2,4.1403343E1,1.5E0,3.776941E1,1.5E1,2.7736801E1,8.775E2,3.0913668E1,6.575E2,7.072E3,4.825E2,3.080779E1,6.446E3,6.888E3,4.625E2,3.0877459E1,3.9896927E1,3.5375298E1,5.9855E3,3.7658253E1,4.589E3,3.655085E1,3.5527023E1,3.970556E1,4.266E3,3.7036587E1,4.2045E3,5E-1,5.7E2,1.5615E3,3.0460577E1,1.553E3,3.2088936E1,3.449467E1,3.5939163E1,4.0535965E1,1.5E0,2.5042334E1,3.487519E1,8.5E0,8.125E2,3.9254578E1,4.5E0,3.38927E1,3.683342E1,3.0004389E1,3.4592205E1,1.65E1,4.3415E3,5.6E2,2.644726E1,3.2438545E1,2.7319828E1,2.5E0,3.3517708E1,3.053133E1,3.223156E1,1.2225E3,1.088E3,2.7375668E1,3.1672886E1,2.5755684E1],"split_indices":[4,2,2,70,71,71,0,48,0,0,0,0,0,13,0,47,5,13,0,8,8,47,0,0,0,8,0,7,0,0,0,7,0,7,72,63,6,0,6,0,0,0,0,76,0,0,65,54,0,73,0,0,0,0,70,10,13,0,0,0,78,0,0,0,54,53,0,0,0],"split_type":[0,0,0,0,0,0,0,0,0,0,0,0,0,0,0,0,0,0,0,0,0,0,0,0,0,0,0,0,0,0,0,0,0,0,0,0,0,0,0,0,0,0,0,0,0,0,0,0,0,0,0,0,0,0,0,0,0,0,0,0,0,0,0,0,0,0,0,0,0],"sum_hessian":[8.14E2,7.8E2,3.4E1,9.4E1,6.86E2,3.1E1,3E0,9.3E1,1E0,6.78E2,8E0,3E1,1E0,8.9E1,4E0,6.68E2,1E1,2.9E1,1E0,8.1E1,8E0,6.65E2,3E0,6E0,4E0,2.2E1,7E0,7.6E1,5E0,6E0,2E0,6.58E2,7E0,1.7E1,5E0,4.3E1,3.3E1,6E0,6.52E2,3E0,1.4E1,3E0,2E0,4.2E1,1E0,2.8E1,5E0,6.49E2,3E0,3.8E1,4E0,2E0,3E0,6.44E2,5E0,2.9E1,9E0,1E0,4E0,1E0,2.8E1,7E0,2E0,1.6E1,1.2E1,1.1E1,1E0,1E1,1E0],"tree_param":{"num_deleted":"0","num_feature":"82","num_nodes":"69","size_leaf_vector":"0"}},{"base_weights":[1.0380771E3,1.0324358E3,1.1254081E3,8.191356E2,1.0327147E3,1.0860536E3,1.1778438E3,1.0321278E3,1.1356506E3,9.590745E2,1.0957402E3,1.0328499E3,8.99222E2,1.2597245E3,1.0808221E3,1.00944104E3,1.0356704E3,8.377566E2,1.0713267E3,1.0349702E3,1.1044175E3,9.7412616E2,1.0324756E3,1.0338654E3,1.0912352E3,7.508491E2,8.764045E2,1.0519357E3,1.1293478E3,1.0074719E3,9.3279486E2,1.0358108E3,8.684463E2,8.316379E2,1.0341742E3,1.0968252E3,9.7311334E2,8.922893E2,1.0310447E3,1.01967096E3,1.0926039E3,9.8812854E2,1.0351373E3,1.102937E3,9.748727E2,9.533969E2,8.7558716E2,1.0390385E3,9.5040924E2,1.1718083E3,1.0566842E3,1.0801432E3,1.1462457E3,1.01876526E3,1.0804039E3,7.929733E2,9.714843E2,1.0102773E3,1.1575642E3,1.1270155E3,1.0188973E3,9.450676E2,1.1167146E3,1.0189429E3,8.524791E2,1.0900085E3,1.2601581E3,9.570689E2,1.0745624E3,1.0055911E3,1.1123927E3],"categories":[],"categories_nodes":[],"categories_segments":[],"categories_sizes":[],"default_left":[1,0,0,0,1,0,0,1,0,0,0,0,0,0,0,0,1,0,0,0,0,0,0,0,0,0,0,0,0,0,0,0,0,0,0,0,0,0,0,0,0,0,0,0,0,0,0,0,0,0,0,0,0,0,0,0,0,0,0,0,0,0,0,0,0,0,0,0,0,0,0],"id":37,"left_children":[1,3,5,-1,7,9,-1,11,-1,-1,13,15,17,-1,19,21,23,25,-1,-1,27,29,31,33,35,-1,-1,-1,-1,-1,37,39,-1,-1,41,43,-1,45,-1,47,49,-1,-1,51,-1,-1,-1,53,55,-1,-1,-1,-1,57,59,-1,61,63,-1,65,67,-1,-1,69,-1,-1,-1,-1,-1,-1,-1],"loss_changes":[3.6864E5,3.3216E4,8.1436E4,0E0,2.9696E4,2.0422E4,0E0,5.8304E4,0E0,0E0,4.4604E4,3.4816E4,3.15085E4,0E0,1.0976E4,5.1216E4,5.0688E4,2.098E3,0E0,0E0,5.17E3,3.1294E4,1.476E4,2.848E4,2.14E2,0E0,0E0,0E0,0E0,0E0,4.4556E4,2.8604E4,0E0,0E0,1.5104E4,1.072E3,0E0,4.8E1,0E0,3.628E4,1.3403E4,0E0,0E0,2.702E3,0E0,0E0,0E0,1.0084E4,1.7197E4,0E0,0E0,0E0,0E0,8.156E3,1.185E4,0E0,1.40465E4,1.4046E4,0E0,7.9675E3,1.281E3,0E0,0E0,7.6E3,0E0,0E0,0E0,0E0,0E0,0E0,0E0],"parents":[2147483647,0,0,1,1,2,2,4,4,5,5,7,7,10,10,11,11,12,12,14,14,15,15,16,16,17,17,20,20,21,21,22,22,23,23,24,24,30,30,31,31,34,34,35,35,37,37,39,39,40,40,43,43,47,47,48,48,53,53,54,54,56,56,57,57,59,59,60,60,63,63],"right_children":[2,4,6,-1,8,10,-1,12,-1,-1,14,16,18,-1,20,22,24,26,-1,-1,28,30,32,34,36,-1,-1,-1,-1,-1,38,40,-1,-1,42,44,-1,46,-1,48,50,-1,-1,52,-1,-1,-1,54,56,-1,-1,-1,-1,58,60,-1,62,64,-1,66,68,-1,-1,70,-1,-1,-1,-1,-1,-1,-1],"split_conditions":[5.0345E3,6.128E3,6.7885E3,2.644832E1,7.0175E3,4.7375E3,3.803032E1,5.955E2,3.6667984E1,3.096668E1,5.7025E3,3.725E2,1.541E3,4.067409E1,1.508E3,4.783E3,5.91E3,5.7805E3,3.4591087E1,3.3417206E1,1.5E0,2.945E2,1.75E1,4.3295E3,4.5E0,2.424348E1,2.8297422E1,3.396499E1,3.6464478E1,3.252934E1,6.955E3,4.35E1,2.8040468E1,2.6851995E1,6.838E3,7.791E3,3.1419968E1,6.6375E3,3.329046E1,6.8045E3,4.5E0,3.190478E1,3.3422604E1,1.5215E3,3.1476772E1,3.0783361E1,2.8271032E1,1.52E3,2.5E0,3.783545E1,3.411831E1,3.4875755E1,3.701008E1,6.787E3,6.7425E3,2.560359E1,2.375E2,7.0025E3,3.7375534E1,5.03E3,3.8025E3,3.0514425E1,3.6056576E1,4.9195E3,2.752492E1,3.519429E1,4.068809E1,3.0901922E1,3.469556E1,3.2468613E1,3.591703E1],"split_indices":[7,5,5,0,5,3,0,63,0,0,8,63,6,0,6,10,3,3,0,0,73,63,80,10,80,0,0,0,0,0,9,70,0,0,9,9,0,5,0,5,65,0,0,6,0,0,0,6,70,0,0,0,0,5,5,0,44,19,0,19,19,0,0,7,0,0,0,0,0,0,0],"split_type":[0,0,0,0,0,0,0,0,0,0,0,0,0,0,0,0,0,0,0,0,0,0,0,0,0,0,0,0,0,0,0,0,0,0,0,0,0,0,0,0,0,0,0,0,0,0,0,0,0,0,0,0,0,0,0,0,0,0,0,0,0,0,0,0,0,0,0,0,0,0,0],"sum_hessian":[7.77E2,7.3E2,4.7E1,1E0,7.29E2,2.7E1,2E1,7.25E2,4E0,2E0,2.5E1,7.21E2,4E0,2E0,2.3E1,7.8E1,6.43E2,3E0,1E0,8E0,1.5E1,3.1E1,4.7E1,6.23E2,2E1,1E0,2E0,5E0,1E1,1.7E1,1.4E1,4.6E1,1E0,1E0,6.22E2,1.9E1,1E0,1E1,4E0,3.6E1,1E1,1.3E1,6.09E2,1.8E1,1E0,2E0,8E0,2.8E1,8E0,3E0,7E0,1.2E1,6E0,1.9E1,9E0,1E0,7E0,1.8E1,1E0,5E0,4E0,6E0,1E0,1.7E1,1E0,4E0,1E0,2E0,2E0,1.5E1,2E0],"tree_param":{"num_deleted":"0","num_feature":"82","num_nodes":"71","size_leaf_vector":"0"}},{"base_weights":[9.995252E2,9.9785486E2,1.166453E3,9.962848E2,1.0747573E3,9.3373737E2,1.00204926E3,8.68485E2,1.1034447E3,9.069271E2,9.565096E2,1.0567957E3,9.995853E2,1.1198594E3,1.0389758E3,9.2010657E2,7.806972E2,8.93624E2,9.7130756E2,1.0738451E3,1.006222E3,9.9882983E2,1.0718732E3,9.891797E2,9.007319E2,9.102309E2,7.8423315E2,8.982436E2,1.0200614E3,8.3638916E2,1.1093475E3,8.641574E2,9.252206E2,9.319949E2,7.915104E2,8.184104E2,9.186846E2,8.390732E2,9.3993884E2,9.572034E2,7.930052E2,9.508847E2,8.203607E2],"categories":[],"categories_nodes":[],"categories_segments":[],"categories_sizes":[],"default_left":[1,1,0,0,0,0,0,0,0,0,0,0,1,0,0,0,0,0,0,0,0,0,0,0,0,0,0,0,0,0,0,0,0,0,0,0,0,0,0,0,0,0,0],"id":38,"left_children":[1,3,-1,5,7,9,11,-1,13,15,17,19,21,-1,-1,23,-1,25,-1,-1,27,-1,29,-1,31,33,-1,-1,-1,-1,-1,35,37,-1,-1,-1,39,-1,41,-1,-1,-1,-1],"loss_changes":[2.13312E5,8.448E4,0E0,2.74176E5,8.3076E4,3.0348E4,8.4928E4,0E0,6.56E2,4.2838E4,2.2934E4,1.3576E4,2.4896E4,0E0,0E0,2.6632E4,0E0,4.0405E3,0E0,0E0,8.105E2,0E0,5.05765E4,0E0,9.976E3,6.5455E3,0E0,0E0,0E0,0E0,0E0,1.3319E4,6.89E3,0E0,0E0,0E0,1.0174E4,0E0,4.909E3,0E0,0E0,0E0,0E0],"parents":[2147483647,0,0,1,1,3,3,4,4,5,5,6,6,8,8,9,9,10,10,11,11,12,12,15,15,17,17,20,20,22,22,24,24,25,25,31,31,32,32,36,36,38,38],"right_children":[2,4,-1,6,8,10,12,-1,14,16,18,20,22,-1,-1,24,-1,26,-1,-1,28,-1,30,-1,32,34,-1,-1,-1,-1,-1,36,38,-1,-1,-1,40,-1,42,-1,-1,-1,-1],"split_conditions":[1.5915E3,6.8955E3,3.7662533E1,4.5585E3,4.198E3,6.7135E3,5E-1,2.8041718E1,7.65E1,7.4905E3,4.4805E3,2.5E0,4.625E2,3.6158115E1,3.354654E1,5E-1,2.5207218E1,1.17E2,3.1361662E1,3.46724E1,1E0,3.22503E1,5.5E0,3.1938719E1,4.597E3,4.4425E3,2.5321386E1,2.9002565E1,3.293583E1,2.7005405E1,3.5818707E1,5.4E2,1.51E3,3.009233E1,2.5556355E1,2.6424906E1,4.5E0,2.7092066E1,1E1,3.0906267E1,2.560462E1,3.0702248E1,2.6487877E1],"split_indices":[6,5,0,7,7,2,80,0,70,9,10,0,47,0,0,73,0,1,0,0,73,0,73,0,10,10,0,0,0,0,0,54,6,0,0,0,80,0,80,0,0,0,0],"split_type":[0,0,0,0,0,0,0,0,0,0,0,0,0,0,0,0,0,0,0,0,0,0,0,0,0,0,0,0,0,0,0,0,0,0,0,0,0,0,0,0,0,0,0],"sum_hessian":[8.16E2,8.08E2,8E0,7.92E2,1.6E1,6.7E1,7.25E2,2E0,1.4E1,3.1E1,3.6E1,3.1E1,6.94E2,1.1E1,3E0,2.8E1,3E0,7E0,2.9E1,2.3E1,8E0,6.87E2,7E0,6E0,2.2E1,6E0,1E0,1E0,7E0,1E0,6E0,9E0,1.3E1,5E0,1E0,5E0,4E0,2E0,1.1E1,3E0,1E0,1E1,1E0],"tree_param":{"num_deleted":"0","num_feature":"82","num_nodes":"43","size_leaf_vector":"0"}},{"base_weights":[9.7103973E2,9.6947125E2,1.0420756E3,9.677561E2,1.0558589E3,1.1056263E3,9.963E2,9.6593256E2,1.0578356E3,1.078528E3,9.6119135E2,1.08287E3,1.2275027E3,9.782897E2,1.1446805E3,9.195902E2,9.6966656E2,9.521433E2,1.07319E3,1.0374459E3,1.1572957E3,1.01689056E3,8.38903E2,9.998558E2,8.9721655E2,9.150573E2,9.956502E2,9.689184E2,1.1368792E3,8.298744E2,1.0629618E3,9.9819366E2,1.1484526E3,9.2120465E2,8.5394867E2,9.6811005E2,1.0361531E3,9.114136E2,9.87758E2,7.832636E2,9.5459625E2,8.9909894E2,9.701815E2,1.0622336E3,9.519591E2,9.329685E2,8.675307E2,9.776253E2,8.8971906E2,9.6930945E2,1.0257079E3,9.69098E2,1.1057203E3,8.958129E2,7.943216E2,8.955137E2,7.816238E2,9.695489E2,8.038894E2,9.099442E2,7.592161E2,9.245798E2,8.614592E2,9.235905E2,9.7017664E2,9.811626E2,8.879283E2,8.952616E2,8.250431E2,1.0293103E3,8.687538E2,9.682839E2,9.9497614E2,9.160232E2,7.692448E2,8.935485E2,9.6877045E2,9.7986194E2,1.0632847E3,9.690301E2,8.867901E2,1.1880962E3,9.736781E2,9.8623773E2,9.3471796E2,1.01397394E3,9.632447E2,1.0242523E3,8.8995306E2],"categories":[],"categories_nodes":[],"categories_segments":[],"categories_sizes":[],"default_left":[1,1,0,1,0,0,0,0,0,0,0,0,0,0,0,0,1,0,0,0,0,0,0,0,0,0,0,1,0,0,0,0,0,0,0,0,0,0,0,0,0,0,1,0,0,0,0,0,0,1,0,0,0,0,0,0,0,0,0,0,0,0,0,0,1,0,0,0,0,0,0,0,0,0,0,0,1,0,0,0,0,0,0,0,0,0,0,0,0],"id":39,"left_children":[1,3,5,7,9,11,13,15,17,19,21,-1,-1,23,-1,25,27,29,-1,31,-1,-1,-1,-1,-1,33,-1,35,-1,-1,-1,-1,-1,37,39,41,43,45,-1,-1,-1,47,49,51,-1,-1,53,-1,55,57,-1,-1,-1,59,-1,61,-1,63,-1,65,-1,-1,67,69,71,-1,-1,-1,-1,-1,73,75,77,-1,-1,-1,79,81,-1,-1,-1,-1,83,85,-1,87,-1,-1,-1],"loss_changes":[7.6224E4,1.02848E5,3.607E4,1.12896E5,1.9589E4,3.26E3,1.3116E4,1.18528E5,1.1916E4,2.4247E4,1.012375E4,0E0,0E0,4.828E3,0E0,8.212E3,7.3152E4,1.6517125E4,0E0,2.0947E4,0E0,0E0,0E0,0E0,0E0,1.0332E4,0E0,2.5216E4,0E0,0E0,0E0,0E0,0E0,2.032E4,2.654675E4,8.6784E4,5.274E3,2.9876E4,0E0,0E0,0E0,4.142E3,1.9904E4,1.1297E4,0E0,0E0,2.0342E4,0E0,2.754E3,1.6256E4,0E0,0E0,0E0,1.0908E4,0E0,7.136E3,0E0,7.872E3,0E0,3.516E3,0E0,0E0,8.62E2,4.13515E4,1.8304E4,0E0,0E0,0E0,0E0,0E0,1.9693E4,1.12E4,3.3776E4,0E0,0E0,0E0,2.112E3,3.3572E4,0E0,0E0,0E0,0E0,6.392E3,5.326E3,0E0,4.208E3,0E0,0E0,0E0],"parents":[2147483647,0,0,1,1,2,2,3,3,4,4,5,5,6,6,7,7,8,8,9,9,10,10,13,13,15,15,16,16,17,17,19,19,25,25,27,27,33,33,34,34,35,35,36,36,37,37,41,41,42,42,43,43,46,46,48,48,49,49,53,53,55,55,57,57,59,59,62,62,63,63,64,64,70,70,71,71,72,72,76,76,77,77,82,82,83,83,85,85],"right_children":[2,4,6,8,10,12,14,16,18,20,22,-1,-1,24,-1,26,28,30,-1,32,-1,-1,-1,-1,-1,34,-1,36,-1,-1,-1,-1,-1,38,40,42,44,46,-1,-1,-1,48,50,52,-1,-1,54,-1,56,58,-1,-1,-1,60,-1,62,-1,64,-1,66,-1,-1,68,70,72,-1,-1,-1,-1,-1,74,76,78,-1,-1,-1,80,82,-1,-1,-1,-1,84,86,-1,88,-1,-1,-1],"split_conditions":[7.028E3,6E0,7.0425E3,6.879E3,6.8685E3,6.97E3,8E0,4.722E3,2.4975E3,4.5E0,5.2025E3,3.49638E1,3.9633713E1,9E0,3.6959545E1,1.35E1,1.31E3,5.0775E3,3.465125E1,7.175E2,3.736686E1,3.283345E1,2.7086573E1,3.228343E1,2.8969404E1,6.5E0,3.214764E1,1.0125E3,3.6707653E1,2.6795055E1,3.4321003E1,3.2229763E1,3.7081337E1,4.614E3,4.1605E3,4.5575E3,4.15E2,5.407E3,3.1892815E1,2.5290083E1,3.0822086E1,5.379E3,4.725E2,5.76E3,3.0736937E1,3.0123768E1,5E0,3.1565649E1,3.5E0,4E0,3.3118145E1,3.129032E1,3.570159E1,1.26E2,2.5647123E1,3.2E1,2.5237135E1,1.8E1,2.595605E1,6.661E3,2.4513636E1,2.9852911E1,1E1,4.7605E3,5.5E0,3.1679861E1,2.8669504E1,2.8906282E1,2.6639063E1,3.323446E1,6.7655E3,5.3035E3,7.65E2,2.9576635E1,2.4837442E1,2.8850971E1,4E0,4.57E3,3.4331425E1,3.1288126E1,2.8632755E1,3.836135E1,2.075E2,5.471E3,3.0180254E1,6.701E3,3.1101328E1,3.3071148E1,2.873488E1],"split_indices":[2,76,2,5,5,5,76,10,19,73,10,0,0,73,0,73,53,3,0,13,0,0,0,0,0,80,0,13,0,0,0,0,0,7,7,7,63,8,0,0,0,8,47,3,0,0,78,0,76,76,0,0,0,1,0,1,0,1,0,5,0,0,65,7,65,0,0,0,0,0,3,3,4,0,0,0,65,7,0,0,0,0,55,3,0,2,0,0,0],"split_type":[0,0,0,0,0,0,0,0,0,0,0,0,0,0,0,0,0,0,0,0,0,0,0,0,0,0,0,0,0,0,0,0,0,0,0,0,0,0,0,0,0,0,0,0,0,0,0,0,0,0,0,0,0,0,0,0,0,0,0,0,0,0,0,0,0,0,0,0,0,0,0,0,0,0,0,0,0,0,0,0,0,0,0,0,0,0,0,0,0],"sum_hessian":[7.95E2,7.78E2,1.7E1,7.63E2,1.5E1,7E0,1E1,7.48E2,1.5E1,1.2E1,3E0,6E0,1E0,9E0,1E0,5.6E1,6.92E2,2E0,1.3E1,8E0,4E0,2E0,1E0,7E0,2E0,5.3E1,3E0,6.89E2,3E0,1E0,1E0,6E0,2E0,4.8E1,5E0,6.81E2,8E0,4.2E1,6E0,3E0,2E0,2E1,6.61E2,6E0,2E0,2.8E1,1.4E1,2E0,1.8E1,6.51E2,1E1,2E0,4E0,1E1,4E0,1.7E1,1E0,6.5E2,1E0,9E0,1E0,9E0,8E0,9E0,6.41E2,2E0,7E0,4E0,4E0,3E0,6E0,5.96E2,4.5E1,4E0,2E0,4E0,5.92E2,3.7E1,8E0,5.9E2,2E0,1E0,3.6E1,2.7E1,9E0,1.2E1,1.5E1,1.1E1,1E0],"tree_param":{"num_deleted":"0","num_feature":"82","num_nodes":"89","size_leaf_vector":"0"}},{"base_weights":[9.431145E2,8.8048285E2,9.4901654E2,8.8535236E2,7.1056396E2,9.914957E2,9.431254E2,8.8075354E2,9.5603864E2,9.576897E2,1.0554352E3,9.4353705E2,8.738772E2,8.515901E2,8.968559E2,9.5403204E2,1.0555309E3,9.2943036E2,1.0736753E3,9.4305115E2,1.0935973E3,8.271162E2,1.00252637E3,7.7816907E2,8.6212317E2,8.3706537E2,9.110365E2,9.445643E2,1.0199022E3,1.1501958E3,9.481732E2,1.0854761E3,1.0302589E3,9.423073E2,9.7350214E2,8.7643036E2,7.288344E2,8.9224396E2,8.018716E2,9.566392E2,8.7981354E2,1.0473469E3,1.1189431E3,8.455557E2,9.429091E2,9.3816656E2,1.012187E3,8.451163E2,9.004237E2,8.3822327E2,7.426023E2,9.7023645E2,9.120014E2,9.190646E2,1.0603398E3,9.4312E2,8.013386E2,9.628516E2,8.587345E2,1.031838E3,8.8329E2,8.303577E2,9.16652E2,9.296703E2,9.973793E2,1.0133886E3,1.1157769E3,9.4284326E2,1.1023765E3,1.0982784E3,9.953869E2,8.897541E2,7.609743E2,9.727412E2,8.9112787E2,1.0055034E3,9.226589E2,8.305018E2,9.133023E2],"categories":[],"categories_nodes":[],"categories_segments":[],"categories_sizes":[],"default_left":[0,0,0,0,0,0,1,0,0,0,0,1,0,0,0,0,0,0,0,1,0,0,0,0,0,0,0,0,0,0,0,0,0,0,0,0,0,0,0,0,0,0,0,0,1,0,0,0,0,0,0,0,0,0,0,1,0,0,0,0,0,0,0,0,0,0,0,0,0,0,0,0,0,0,0,0,0,0,0],"id":40,"left_children":[1,3,5,7,-1,9,11,13,-1,15,17,19,21,23,25,27,29,-1,31,33,-1,-1,-1,-1,35,37,-1,39,-1,-1,-1,41,-1,43,45,47,-1,-1,49,51,-1,53,-1,-1,55,57,59,-1,61,-1,-1,63,-1,-1,65,67,-1,-1,-1,69,-1,71,-1,73,75,-1,-1,-1,-1,-1,-1,-1,-1,-1,77,-1,-1,-1,-1],"loss_changes":[2.896E5,5.0264E4,1.74016E5,1.1852E4,0E0,1.82256E5,8.512E3,2.0756E4,0E0,8.852E3,5.912E4,3.4624E4,1.40335E4,9.621E3,2.5482E4,2.3816E4,7.1655E3,0E0,2.18E2,3.456E3,0E0,0E0,0E0,0E0,3.0379E4,6.8405E3,0E0,2.8848E4,0E0,0E0,0E0,1.2538E4,0E0,2.6944E4,8.952E3,4.262E3,0E0,0E0,3.21275E3,1.4724E4,0E0,4.817E3,0E0,0E0,9.536E3,5.6355E3,6.658E3,0E0,2.11E3,0E0,0E0,2.395E4,0E0,0E0,9.683E3,1.4848E4,0E0,0E0,0E0,1.244E3,0E0,4.15E1,0E0,1.104E4,2.4E2,0E0,0E0,0E0,0E0,0E0,0E0,0E0,0E0,0E0,1.84E2,0E0,0E0,0E0,0E0],"parents":[2147483647,0,0,1,1,2,2,3,3,5,5,6,6,7,7,9,9,10,10,11,11,12,12,13,13,14,14,15,15,16,16,18,18,19,19,24,24,25,25,27,27,31,31,33,33,34,34,35,35,38,38,39,39,41,41,44,44,45,45,46,46,48,48,51,51,54,54,55,55,59,59,61,61,63,63,64,64,74,74],"right_children":[2,4,6,8,-1,10,12,14,-1,16,18,20,22,24,26,28,30,-1,32,34,-1,-1,-1,-1,36,38,-1,40,-1,-1,-1,42,-1,44,46,48,-1,-1,50,52,-1,54,-1,-1,56,58,60,-1,62,-1,-1,64,-1,-1,66,68,-1,-1,-1,70,-1,72,-1,74,76,-1,-1,-1,-1,-1,-1,-1,-1,-1,78,-1,-1,-1,-1],"split_conditions":[4.5585E3,5.166E3,5.207E3,7.5E0,2.294275E1,7.4215E3,5.9E1,6.6995E3,3.0868658E1,5E0,6.398E3,5E2,7.008E3,4.4365E3,4.4805E3,5.1245E3,5.7465E3,3.0009527E1,6.925E2,6.0045E3,3.531016E1,2.6706E1,3.2369656E1,2.512559E1,6.6975E3,6.9745E3,2.9415625E1,4.915E2,3.293069E1,3.713762E1,3.0614698E1,6.9955E3,3.3265087E1,2.7E2,3.14E2,5E0,2.3532667E1,2.880885E1,1.65E2,4.375E2,2.8407495E1,5.7045E3,3.6128532E1,2.7301376E1,5.7E2,6.57E3,4.5E2,2.7287186E1,4.9595E3,2.7064625E1,2.3977207E1,4.656E3,2.944678E1,2.9674835E1,5.081E3,5.448E3,2.587369E1,3.1088636E1,2.7726892E1,5.2235E3,2.8519743E1,4.7205E3,2.9596937E1,4.848E3,6.8545E3,3.272038E1,3.60263E1,3.0442604E1,3.5593624E1,3.5461308E1,3.2139137E1,2.8728456E1,2.4570404E1,3.1407951E1,4.589E3,3.2465782E1,2.9790888E1,2.6815311E1,2.9488783E1],"split_indices":[7,10,10,64,0,9,70,2,0,79,2,22,2,10,10,10,8,0,54,8,0,0,0,0,2,2,0,63,0,0,0,2,0,63,63,78,0,0,55,55,0,8,0,0,63,8,63,0,3,0,0,7,0,0,3,7,0,0,0,3,0,3,0,10,3,0,0,0,0,0,0,0,0,0,7,0,0,0,0],"split_type":[0,0,0,0,0,0,0,0,0,0,0,0,0,0,0,0,0,0,0,0,0,0,0,0,0,0,0,0,0,0,0,0,0,0,0,0,0,0,0,0,0,0,0,0,0,0,0,0,0,0,0,0,0,0,0,0,0,0,0,0,0,0,0,0,0,0,0,0,0,0,0,0,0,0,0,0,0,0,0],"sum_hessian":[8.11E2,7E1,7.41E2,6.8E1,2E0,9E1,6.51E2,6.4E1,4E0,5.9E1,3.1E1,6.47E2,4E0,2.3E1,4.1E1,5.7E1,2E0,4E0,2.7E1,6.45E2,2E0,3E0,1E0,3E0,2E1,8E0,3.3E1,5E1,7E0,1E0,1E0,2.1E1,6E0,6.3E2,1.5E1,1.8E1,2E0,3E0,5E0,4.2E1,8E0,1E1,1.1E1,4E0,6.26E2,8E0,7E0,8E0,1E1,3E0,2E0,3.2E1,1E1,1E0,9E0,6.25E2,1E0,6E0,2E0,6E0,1E0,2E0,8E0,1.3E1,1.9E1,5E0,4E0,6.24E2,1E0,2E0,4E0,1E0,1E0,6E0,7E0,1.7E1,2E0,2E0,5E0],"tree_param":{"num_deleted":"0","num_feature":"82","num_nodes":"79","size_leaf_vector":"0"}},{"base_weights":[9.072403E2,9.021774E2,9.602721E2,8.652765E2,9.040336E2,9.4016547E2,1.0146637E3,8.4508276E2,8.962477E2,9.0447314E2,7.439093E2,9.0981885E2,9.638416E2,1.0447075E3,9.61436E2,8.88624E2,8.0793463E2,8.484611E2,9.216139E2,9.0388586E2,9.846436E2,6.5300635E2,8.2586383E2,9.177651E2,8.2133594E2,9.683295E2,8.280458E2,9.3261053E2,1.053856E3,9.2447705E2,1.0476823E3,7.867222E2,9.3085455E2,8.552412E2,7.7271814E2,8.977072E2,8.1213513E2,9.0413885E2,7.175857E2,8.063212E2,9.228434E2,7.3945044E2,8.933428E2,1.0254443E3,9.5219434E2,8.7917035E2,9.668328E2,7.4064844E2,8.479262E2,9.043788E2,7.270555E2,9.626512E2,8.424347E2,8.4930457E2,7.1098987E2,9.050505E2,8.5158136E2,9.4670154E2,1.0080848E3,9.05226E2,7.743391E2,8.7410657E2,8.031802E2,1.0703004E3,9.6245044E2,8.405087E2,9.06065E2,7.4575946E2,9.076712E2,7.900335E2,9.010143E2,9.0574054E2,1.1135043E3,8.6826807E2,9.876299E2,9.059759E2,8.208381E2,9.0527856E2,9.472748E2,9.049576E2,1.00604584E3,9.2650977E2,9.9868054E2,9.053469E2,8.3797217E2],"categories":[],"categories_nodes":[],"categories_segments":[],"categories_sizes":[],"default_left":[1,0,0,0,1,0,0,0,0,1,0,0,0,0,0,0,0,0,0,1,0,0,0,0,0,0,0,0,0,0,0,0,0,0,0,0,0,1,0,0,0,0,0,0,0,0,0,0,0,1,0,0,0,0,0,1,0,0,0,0,0,0,0,0,0,0,1,0,0,0,0,1,0,0,0,1,0,1,0,1,0,0,0,0,0],"id":41,"left_children":[1,3,5,7,9,11,13,15,17,19,21,23,25,27,29,31,33,35,-1,37,-1,-1,-1,39,41,43,-1,-1,-1,-1,-1,-1,45,-1,47,-1,-1,49,-1,-1,-1,-1,-1,-1,51,-1,-1,53,-1,55,-1,57,-1,-1,-1,59,61,-1,63,65,-1,-1,67,-1,-1,69,71,-1,-1,-1,73,75,-1,-1,-1,77,-1,79,81,83,-1,-1,-1,-1,-1],"loss_changes":[2.08832E5,4.16E4,6.604E4,1.3294E4,4.1728E4,2.6688E4,1.8168E4,2.6856E4,7.458E3,2.2464E4,8.417E3,6.996E3,7.91E3,3.45E2,1.0553E4,3.41625E4,1.19585E4,8.25E1,0E0,2.528E4,0E0,0E0,0E0,2.824E3,3.814375E3,1.3922E4,0E0,0E0,0E0,0E0,0E0,0E0,2.683E3,0E0,9.259E3,0E0,0E0,2.1824E4,0E0,0E0,0E0,0E0,0E0,0E0,1.5384E4,0E0,0E0,8.79275E3,0E0,1.5488E4,0E0,2.876E3,0E0,0E0,0E0,7.36E3,1.2695E3,0E0,1.682E3,2.816E4,0E0,0E0,9.824125E3,0E0,0E0,1.88485E4,3.3664E4,0E0,0E0,0E0,9.3225E2,4.544E3,0E0,0E0,0E0,9.088E3,0E0,1.056E4,4.82E2,8.128E3,0E0,0E0,0E0,0E0,0E0],"parents":[2147483647,0,0,1,1,2,2,3,3,4,4,5,5,6,6,7,7,8,8,9,9,10,10,11,11,12,12,13,13,14,14,15,15,16,16,17,17,19,19,23,23,24,24,25,25,32,32,34,34,37,37,44,44,47,47,49,49,51,51,55,55,56,56,58,58,59,59,62,62,65,65,66,66,70,70,71,71,75,75,77,77,78,78,79,79],"right_children":[2,4,6,8,10,12,14,16,18,20,22,24,26,28,30,32,34,36,-1,38,-1,-1,-1,40,42,44,-1,-1,-1,-1,-1,-1,46,-1,48,-1,-1,50,-1,-1,-1,-1,-1,-1,52,-1,-1,54,-1,56,-1,58,-1,-1,-1,60,62,-1,64,66,-1,-1,68,-1,-1,70,72,-1,-1,-1,74,76,-1,-1,-1,78,-1,80,82,84,-1,-1,-1,-1,-1],"split_conditions":[4.7855E3,2.55E1,7.35E1,4.5E0,2.945E3,2.5E0,5E0,6.695E3,6.691E3,7.0275E3,6.517E3,7.003E3,8.5E2,6.3975E3,6.986E3,5.955E3,5.75E2,6.548E3,2.9757149E1,7.0245E3,3.1792257E1,2.1084326E1,2.6665562E1,4.601E3,7.029E3,6.15E2,2.6736013E1,3.011221E1,3.4026993E1,2.9849594E1,3.3827656E1,2.5401754E1,5.6E2,2.7614101E1,7.65E2,2.8985247E1,2.6222288E1,1.115E3,2.3169468E1,2.6034569E1,2.9796846E1,2.3875439E1,2.8844328E1,3.3109634E1,1.25E1,2.8386728E1,3.121718E1,1.5085E3,2.7377914E1,4.5E2,2.347523E1,1.575E3,2.7200603E1,2.7422419E1,2.2956501E1,5E2,1.29E2,3.056718E1,4.1E1,4.1335E3,2.5001928E1,2.8223228E1,4.378E3,3.4557953E1,3.1075682E1,3.655E2,5.035E3,2.4079145E1,2.9306965E1,2.5508669E1,7.5E2,1.35E1,3.5952923E1,2.8034714E1,3.1888678E1,7.8E2,2.650329E1,1.5485E3,3.8225E3,5.0995E3,3.2483295E1,2.9915226E1,3.2245483E1,2.9231918E1,2.7056517E1],"split_indices":[7,1,1,73,54,72,72,2,2,2,2,2,55,2,2,2,4,2,0,2,0,0,0,3,2,4,0,0,0,0,0,0,4,0,4,0,0,4,0,0,0,0,0,0,80,0,0,6,0,33,0,6,0,0,0,51,1,0,1,7,0,0,7,0,0,63,19,0,0,0,14,64,0,0,0,4,0,6,19,10,0,0,0,0,0],"split_type":[0,0,0,0,0,0,0,0,0,0,0,0,0,0,0,0,0,0,0,0,0,0,0,0,0,0,0,0,0,0,0,0,0,0,0,0,0,0,0,0,0,0,0,0,0,0,0,0,0,0,0,0,0,0,0,0,0,0,0,0,0,0,0,0,0,0,0,0,0,0,0,0,0,0,0,0,0,0,0,0,0,0,0,0,0],"sum_hessian":[8.17E2,7.46E2,7.1E1,3.6E1,7.1E2,5.2E1,1.9E1,2.2E1,1.4E1,7.08E2,2E0,2.3E1,2.9E1,1.2E1,7E0,1E1,1.2E1,5E0,9E0,7.03E2,5E0,1E0,1E0,2.1E1,2E0,2.8E1,1E0,1E0,1.1E1,5E0,2E0,3E0,7E0,5E0,7E0,2E0,3E0,7.02E2,1E0,1E0,2E1,1E0,1E0,6E0,2.2E1,3E0,4E0,5E0,2E0,7.01E2,1E0,2E1,2E0,1E0,4E0,6.92E2,9E0,1.5E1,5E0,6.91E2,1E0,6E0,3E0,2E0,3E0,9E0,6.82E2,2E0,1E0,5E0,4E0,6.81E2,1E0,3E0,1E0,6.79E2,2E0,6.68E2,1.1E1,6.66E2,2E0,8E0,3E0,6.62E2,4E0],"tree_param":{"num_deleted":"0","num_feature":"82","num_nodes":"85","size_leaf_vector":"0"}},{"base_weights":[8.842961E2,8.815031E2,9.3090533E2,8.103082E2,8.857889E2,9.02183E2,9.8223914E2,8.309898E2,7.1870105E2,8.842517E2,9.1707916E2,9.6387524E2,8.781365E2,1.073149E3,9.683312E2,8.216599E2,9.267862E2,7.0161224E2,8.2844525E2,8.849654E2,8.35489E2,8.690561E2,9.37488E2,9.748497E2,8.673385E2,8.369008E2,7.5405493E2,8.852113E2,7.1203217E2,7.7094806E2,8.617629E2,8.939193E2,8.0766376E2,8.7233673E2,9.506367E2,8.583218E2,1.0173664E3,8.6778046E2,7.864984E2,8.8474335E2,9.5996747E2,6.565193E2,8.238436E2,9.384673E2,8.288764E2,9.324688E2,7.924872E2,9.2139087E2,7.158618E2,9.568903E2,8.2791797E2,8.756327E2,7.952605E2,7.9573364E2,8.7737256E2,7.4096857E2,8.152897E2,7.499485E2,8.849329E2,8.528514E2,7.238716E2,9.742619E2,9.094678E2,8.844197E2,7.521384E2,8.3412286E2,7.1222296E2,8.8462146E2,1.0779834E3,7.7731647E2,9.030121E2,8.386685E2,8.8516797E2,8.854255E2,7.963654E2,8.8485706E2,9.361779E2,8.8447253E2,9.436017E2,8.847378E2,7.9488007E2,8.8487744E2,7.8608154E2,8.846022E2,9.665252E2,8.844306E2,9.815978E2,8.6104346E2,8.8517413E2],"categories":[],"categories_nodes":[],"categories_segments":[],"categories_sizes":[],"default_left":[1,0,0,0,1,0,0,0,0,1,0,0,0,0,0,